{"learner":{"attributes":{},"feature_names":[],"feature_types":[],"gradient_booster":{"model":{"cats":{"enc":[],"feature_segments":[],"sorted_idx":[]},"gbtree_model_param":{"num_parallel_tree":"1","num_trees":"2000"},"iteration_indptr":[0,20,40,60,80,100,120,140,160,180,200,220,240,260,280,300,320,340,360,380,400,420,440,460,480,500,520,540,560,580,600,620,640,660,680,700,720,740,760,780,800,820,840,860,880,900,920,940,960,980,1000,1020,1040,1060,1080,1100,1120,1140,1160,1180,1200,1220,1240,1260,1280,1300,1320,1340,1360,1380,1400,1420,1440,1460,1480,1500,1520,1540,1560,1580,1600,1620,1640,1660,1680,1700,1720,1740,1760,1780,1800,1820,1840,1860,1880,1900,1920,1940,1960,1980,2000],"tree_info":[0,1,2,3,4,5,6,7,8,9,10,11,12,13,14,15,16,17,18,19,0,1,2,3,4,5,6,7,8,9,10,11,12,13,14,15,16,17,18,19,0,1,2,3,4,5,6,7,8,9,10,11,12,13,14,15,16,17,18,19,0,1,2,3,4,5,6,7,8,9,10,11,12,13,14,15,16,17,18,19,0,1,2,3,4,5,6,7,8,9,10,11,12,13,14,15,16,17,18,19,0,1,2,3,4,5,6,7,8,9,10,11,12,13,14,15,16,17,18,19,0,1,2,3,4,5,6,7,8,9,10,11,12,13,14,15,16,17,18,19,0,1,2,3,4,5,6,7,8,9,10,11,12,13,14,15,16,17,18,19,0,1,2,3,4,5,6,7,8,9,10,11,12,13,14,15,16,17,18,19,0,1,2,3,4,5,6,7,8,9,10,11,12,13,14,15,16,17,18,19,0,1,2,3,4,5,6,7,8,9,10,11,12,13,14,15,16,17,18,19,0,1,2,3,4,5,6,7,8,9,10,11,12,13,14,15,16,17,18,19,0,1,2,3,4,5,6,7,8,9,10,11,12,13,14,15,16,17,18,19,0,1,2,3,4,5,6,7,8,9,10,11,12,13,14,15,16,17,18,19,0,1,2,3,4,5,6,7,8,9,10,11,12,13,14,15,16,17,18,19,0,1,2,3,4,5,6,7,8,9,10,11,12,13,14,15,16,17,18,19,0,1,2,3,4,5,6,7,8,9,10,11,12,13,14,15,16,17,18,19,0,1,2,3,4,5,6,7,8,9,10,11,12,13,14,15,16,17,18,19,0,1,2,3,4,5,6,7,8,9,10,11,12,13,14,15,16,17,18,19,0,1,2,3,4,5,6,7,8,9,10,11,12,13,14,15,16,17,18,19,0,1,2,3,4,5,6,7,8,9,10,11,12,13,14,15,16,17,18,19,0,1,2,3,4,5,6,7,8,9,10,11,12,13,14,15,16,17,18,19,0,1,2,3,4,5,6,7,8,9,10,11,12,13,14,15,16,17,18,19,0,1,2,3,4,5,6,7,8,9,10,11,12,13,14,15,16,17,18,19,0,1,2,3,4,5,6,7,8,9,10,11,12,13,14,15,16,17,18,19,0,1,2,3,4,5,6,7,8,9,10,11,12,13,14,15,16,17,18,19,0,1,2,3,4,5,6,7,8,9,10,11,12,13,14,15,16,17,18,19,0,1,2,3,4,5,6,7,8,9,10,11,12,13,14,15,16,17,18,19,0,1,2,3,4,5,6,7,8,9,10,11,12,13,14,15,16,17,18,19,0,1,2,3,4,5,6,7,8,9,10,11,12,13,14,15,16,17,18,19,0,1,2,3,4,5,6,7,8,9,10,11,12,13,14,15,16,17,18,19,0,1,2,3,4,5,6,7,8,9,10,11,12,13,14,15,16,17,18,19,0,1,2,3,4,5,6,7,8,9,10,11,12,13,14,15,16,17,18,19,0,1,2,3,4,5,6,7,8,9,10,11,12,13,14,15,16,17,18,19,0,1,2,3,4,5,6,7,8,9,10,11,12,13,14,15,16,17,18,19,0,1,2,3,4,5,6,7,8,9,10,11,12,13,14,15,16,17,18,19,0,1,2,3,4,5,6,7,8,9,10,11,12,13,14,15,16,17,18,19,0,1,2,3,4,5,6,7,8,9,10,11,12,13,14,15,16,17,18,19,0,1,2,3,4,5,6,7,8,9,10,11,12,13,14,15,16,17,18,19,0,1,2,3,4,5,6,7,8,9,10,11,12,13,14,15,16,17,18,19,0,1,2,3,4,5,6,7,8,9,10,11,12,13,14,15,16,17,18,19,0,1,2,3,4,5,6,7,8,9,10,11,12,13,14,15,16,17,18,19,0,1,2,3,4,5,6,7,8,9,10,11,12,13,14,15,16,17,18,19,0,1,2,3,4,5,6,7,8,9,10,11,12,13,14,15,16,17,18,19,0,1,2,3,4,5,6,7,8,9,10,11,12,13,14,15,16,17,18,19,0,1,2,3,4,5,6,7,8,9,10,11,12,13,14,15,16,17,18,19,0,1,2,3,4,5,6,7,8,9,10,11,12,13,14,15,16,17,18,19,0,1,2,3,4,5,6,7,8,9,10,11,12,13,14,15,16,17,18,19,0,1,2,3,4,5,6,7,8,9,10,11,12,13,14,15,16,17,18,19,0,1,2,3,4,5,6,7,8,9,10,11,12,13,14,15,16,17,18,19,0,1,2,3,4,5,6,7,8,9,10,11,12,13,14,15,16,17,18,19,0,1,2,3,4,5,6,7,8,9,10,11,12,13,14,15,16,17,18,19,0,1,2,3,4,5,6,7,8,9,10,11,12,13,14,15,16,17,18,19,0,1,2,3,4,5,6,7,8,9,10,11,12,13,14,15,16,17,18,19,0,1,2,3,4,5,6,7,8,9,10,11,12,13,14,15,16,17,18,19,0,1,2,3,4,5,6,7,8,9,10,11,12,13,14,15,16,17,18,19,0,1,2,3,4,5,6,7,8,9,10,11,12,13,14,15,16,17,18,19,0,1,2,3,4,5,6,7,8,9,10,11,12,13,14,15,16,17,18,19,0,1,2,3,4,5,6,7,8,9,10,11,12,13,14,15,16,17,18,19,0,1,2,3,4,5,6,7,8,9,10,11,12,13,14,15,16,17,18,19,0,1,2,3,4,5,6,7,8,9,10,11,12,13,14,15,16,17,18,19,0,1,2,3,4,5,6,7,8,9,10,11,12,13,14,15,16,17,18,19,0,1,2,3,4,5,6,7,8,9,10,11,12,13,14,15,16,17,18,19,0,1,2,3,4,5,6,7,8,9,10,11,12,13,14,15,16,17,18,19,0,1,2,3,4,5,6,7,8,9,10,11,12,13,14,15,16,17,18,19,0,1,2,3,4,5,6,7,8,9,10,11,12,13,14,15,16,17,18,19,0,1,2,3,4,5,6,7,8,9,10,11,12,13,14,15,16,17,18,19,0,1,2,3,4,5,6,7,8,9,10,11,12,13,14,15,16,17,18,19,0,1,2,3,4,5,6,7,8,9,10,11,12,13,14,15,16,17,18,19,0,1,2,3,4,5,6,7,8,9,10,11,12,13,14,15,16,17,18,19,0,1,2,3,4,5,6,7,8,9,10,11,12,13,14,15,16,17,18,19,0,1,2,3,4,5,6,7,8,9,10,11,12,13,14,15,16,17,18,19,0,1,2,3,4,5,6,7,8,9,10,11,12,13,14,15,16,17,18,19,0,1,2,3,4,5,6,7,8,9,10,11,12,13,14,15,16,17,18,19,0,1,2,3,4,5,6,7,8,9,10,11,12,13,14,15,16,17,18,19,0,1,2,3,4,5,6,7,8,9,10,11,12,13,14,15,16,17,18,19,0,1,2,3,4,5,6,7,8,9,10,11,12,13,14,15,16,17,18,19,0,1,2,3,4,5,6,7,8,9,10,11,12,13,14,15,16,17,18,19,0,1,2,3,4,5,6,7,8,9,10,11,12,13,14,15,16,17,18,19,0,1,2,3,4,5,6,7,8,9,10,11,12,13,14,15,16,17,18,19,0,1,2,3,4,5,6,7,8,9,10,11,12,13,14,15,16,17,18,19,0,1,2,3,4,5,6,7,8,9,10,11,12,13,14,15,16,17,18,19,0,1,2,3,4,5,6,7,8,9,10,11,12,13,14,15,16,17,18,19,0,1,2,3,4,5,6,7,8,9,10,11,12,13,14,15,16,17,18,19,0,1,2,3,4,5,6,7,8,9,10,11,12,13,14,15,16,17,18,19,0,1,2,3,4,5,6,7,8,9,10,11,12,13,14,15,16,17,18,19,0,1,2,3,4,5,6,7,8,9,10,11,12,13,14,15,16,17,18,19,0,1,2,3,4,5,6,7,8,9,10,11,12,13,14,15,16,17,18,19,0,1,2,3,4,5,6,7,8,9,10,11,12,13,14,15,16,17,18,19,0,1,2,3,4,5,6,7,8,9,10,11,12,13,14,15,16,17,18,19,0,1,2,3,4,5,6,7,8,9,10,11,12,13,14,15,16,17,18,19,0,1,2,3,4,5,6,7,8,9,10,11,12,13,14,15,16,17,18,19,0,1,2,3,4,5,6,7,8,9,10,11,12,13,14,15,16,17,18,19,0,1,2,3,4,5,6,7,8,9,10,11,12,13,14,15,16,17,18,19,0,1,2,3,4,5,6,7,8,9,10,11,12,13,14,15,16,17,18,19,0,1,2,3,4,5,6,7,8,9,10,11,12,13,14,15,16,17,18,19,0,1,2,3,4,5,6,7,8,9,10,11,12,13,14,15,16,17,18,19,0,1,2,3,4,5,6,7,8,9,10,11,12,13,14,15,16,17,18,19,0,1,2,3,4,5,6,7,8,9,10,11,12,13,14,15,16,17,18,19,0,1,2,3,4,5,6,7,8,9,10,11,12,13,14,15,16,17,18,19],"trees":[{"base_weights":[5.512105E-2,-3.0991971E-1,1.07361354E-1,-2.4595859E-2,5.9654664E-2],"categories":[],"categories_nodes":[],"categories_segments":[],"categories_sizes":[],"default_left":[1,1,0,0,0],"id":0,"left_children":[1,3,-1,-1,-1],"loss_changes":[1.4487901E1,5.041359E0,0E0,0E0,0E0],"parents":[2147483647,0,0,1,1],"right_children":[2,4,-1,-1,-1],"split_conditions":[2.5992233E-1,2.9171026E-1,1.07361354E-1,-2.4595859E-2,5.9654664E-2],"split_indices":[18,168,0,0,0],"split_type":[0,0,0,0,0],"sum_hessian":[1.7099203E1,1.52842045E1,1.8149993E0,1.4233416E1,1.0507891E0],"tree_param":{"num_deleted":"0","num_feature":"243","num_nodes":"5","size_leaf_vector":"1"}},{"base_weights":[2.6541993E-3,1.17569916E-1,-3.7221828E-1,3.54448E-2,-2.460154E-2],"categories":[],"categories_nodes":[],"categories_segments":[],"categories_sizes":[],"default_left":[0,0,0,0,0],"id":1,"left_children":[1,-1,3,-1,-1],"loss_changes":[1.6731752E1,0E0,2.4722767E0,0E0,0E0],"parents":[2147483647,0,0,2,2],"right_children":[2,-1,4,-1,-1],"split_conditions":[8.3667696E-1,1.17569916E-1,2.9420483E-1,3.54448E-2,-2.460154E-2],"split_indices":[204,0,18,0,0],"split_type":[0,0,0,0,0],"sum_hessian":[1.700896E1,1.6153761E0,1.5393584E1,1.0452434E0,1.4348341E1],"tree_param":{"num_deleted":"0","num_feature":"243","num_nodes":"5","size_leaf_vector":"1"}},{"base_weights":[5.512105E-2,1.0780602E-1,-2.548834E-1,-2.4638144E-2,8.403553E-2],"categories":[],"categories_nodes":[],"categories_segments":[],"categories_sizes":[],"default_left":[0,0,1,0,0],"id":2,"left_children":[1,-1,3,-1,-1],"loss_changes":[1.2337916E1,0E0,8.501994E0,0E0,0E0],"parents":[2147483647,0,0,2,2],"right_children":[2,-1,4,-1,-1],"split_conditions":[3.7005213E-1,1.0780602E-1,2.8305522E-1,-2.4638144E-2,8.403553E-2],"split_indices":[76,0,188,0,0],"split_type":[0,0,0,0,0],"sum_hessian":[1.7099203E1,1.4328942E0,1.5666309E1,1.46155205E1,1.0507891E0],"tree_param":{"num_deleted":"0","num_feature":"243","num_nodes":"5","size_leaf_vector":"1"}},{"base_weights":[1.5844277E-1,2.0243871E-1,-2.4747407E-2],"categories":[],"categories_nodes":[],"categories_segments":[],"categories_sizes":[],"default_left":[0,0,0],"id":3,"left_children":[1,-1,-1],"loss_changes":[4.8472633E1,0E0,0E0],"parents":[2147483647,0,0],"right_children":[2,-1,-1],"split_conditions":[4.6967444E-1,2.0243871E-1,-2.4747407E-2],"split_indices":[37,0,0],"split_type":[0,0,0],"sum_hessian":[1.728104E1,1.7377582E0,1.5543282E1],"tree_param":{"num_deleted":"0","num_feature":"243","num_nodes":"3","size_leaf_vector":"1"}},{"base_weights":[5.512105E-2,-1.4365767E-1,8.403553E-2,5.9654664E-2,-3.0604032E-1,3.527381E-2,-2.1217538E-2],"categories":[],"categories_nodes":[],"categories_segments":[],"categories_sizes":[],"default_left":[1,0,0,0,0,0,0],"id":4,"left_children":[1,3,-1,-1,5,-1,-1],"loss_changes":[6.0898895E0,4.065751E0,0E0,0E0,2.2138524E0,0E0,0E0],"parents":[2147483647,0,0,1,1,4,4],"right_children":[2,4,-1,-1,6,-1,-1],"split_conditions":[3.2334304E-1,3.424155E-1,8.403553E-2,5.9654664E-2,2.2184618E-1,3.527381E-2,-2.1217538E-2],"split_indices":[1,76,0,0,185,0,0],"split_type":[0,0,0,0,0,0,0],"sum_hessian":[1.7099203E1,1.6048414E1,1.0507891E0,1.0507891E0,1.4997625E1,1.0507891E0,1.3946836E1],"tree_param":{"num_deleted":"0","num_feature":"243","num_nodes":"7","size_leaf_vector":"1"}},{"base_weights":[-1.0391203E-1,-2.4689721E-2,1.2395866E-1],"categories":[],"categories_nodes":[],"categories_segments":[],"categories_sizes":[],"default_left":[1,0,0],"id":5,"left_children":[1,-1,-1],"loss_changes":[1.9180593E1,0E0,0E0],"parents":[2147483647,0,0],"right_children":[2,-1,-1],"split_conditions":[2.6026726E-1,-2.4689721E-2,1.2395866E-1],"split_indices":[100,0,0],"split_type":[0,0,0],"sum_hessian":[1.6829813E1,1.5325472E1,1.5043408E0],"tree_param":{"num_deleted":"0","num_feature":"243","num_nodes":"3","size_leaf_vector":"1"}},{"base_weights":[1.0704919E-1,1.6884668E-1,-3.7578493E-1,1.0788067E-2,-2.146766E-2],"categories":[],"categories_nodes":[],"categories_segments":[],"categories_sizes":[],"default_left":[0,0,0,0,0],"id":6,"left_children":[1,-1,3,-1,-1],"loss_changes":[2.9987421E1,0E0,6.233947E-1,0E0,0E0],"parents":[2147483647,0,0,2,2],"right_children":[2,-1,4,-1,-1],"split_conditions":[4.1833347E-1,1.6884668E-1,6.886012E-1,1.0788067E-2,-2.146766E-2],"split_indices":[204,0,88,0,0],"split_type":[0,0,0,0,0],"sum_hessian":[1.7189896E1,1.4404941E0,1.5749402E1,1.0563624E0,1.469304E1],"tree_param":{"num_deleted":"0","num_feature":"243","num_nodes":"5","size_leaf_vector":"1"}},{"base_weights":[-1.0391203E-1,-3.160778E-1,8.494541E-2,6.0366143E-2,-2.4632059E-2],"categories":[],"categories_nodes":[],"categories_segments":[],"categories_sizes":[],"default_left":[1,0,0,0,0],"id":7,"left_children":[1,3,-1,-1,-1],"loss_changes":[7.3568325E0,5.1123962E0,0E0,0E0,0E0],"parents":[2147483647,0,0,1,1],"right_children":[2,4,-1,-1,-1],"split_conditions":[3.2334304E-1,3.6135313E-1,8.494541E-2,6.0366143E-2,-2.4632059E-2],"split_indices":[1,170,0,0,0],"split_type":[0,0,0,0,0],"sum_hessian":[1.6829813E1,1.5795578E1,1.0342343E0,1.0342343E0,1.4761344E1],"tree_param":{"num_deleted":"0","num_feature":"243","num_nodes":"5","size_leaf_vector":"1"}},{"base_weights":[-1.0391203E-1,9.2984736E-2,-3.7304837E-1,3.5786863E-2,-2.4601651E-2],"categories":[],"categories_nodes":[],"categories_segments":[],"categories_sizes":[],"default_left":[0,0,0,0,0],"id":8,"left_children":[1,-1,3,-1,-1],"loss_changes":[1.0116418E1,0E0,2.4914722E0,0E0,0E0],"parents":[2147483647,0,0,2,2],"right_children":[2,-1,4,-1,-1],"split_conditions":[8.133382E-1,9.2984736E-2,2.996793E-1,3.5786863E-2,-2.4601651E-2],"split_indices":[106,0,55,0,0],"split_type":[0,0,0,0,0],"sum_hessian":[1.6829813E1,1.3162981E0,1.55135145E1,1.0342343E0,1.44792795E1],"tree_param":{"num_deleted":"0","num_feature":"243","num_nodes":"5","size_leaf_vector":"1"}},{"base_weights":[-1.0391203E-1,-2.5653833E-1,6.0366143E-2,-4.2861378E-1,5.65374E-2,1.1207593E-2,-2.4503399E-2],"categories":[],"categories_nodes":[],"categories_segments":[],"categories_sizes":[],"default_left":[1,1,0,0,0,0,0],"id":9,"left_children":[1,3,-1,5,-1,-1,-1],"loss_changes":[3.8779855E0,4.49406E0,0E0,7.383466E-1,0E0,0E0,0E0],"parents":[2147483647,0,0,1,1,3,3],"right_children":[2,4,-1,6,-1,-1,-1],"split_conditions":[3.1251952E-1,2.8531083E-1,6.0366143E-2,3.6274606E-1,5.65374E-2,1.1207593E-2,-2.4503399E-2],"split_indices":[106,112,0,46,0,0,0],"split_type":[0,0,0,0,0,0,0],"sum_hessian":[1.6829813E1,1.5795578E1,1.0342343E0,1.4667322E1,1.1282556E0,1.0342343E0,1.3633088E1],"tree_param":{"num_deleted":"0","num_feature":"243","num_nodes":"7","size_leaf_vector":"1"}},{"base_weights":[2.6541993E-3,-2.0054953E-1,8.433874E-2,3.54448E-2,-3.047987E-1,3.54448E-2,-4.2370048E-1,-2.4302317E-2,8.869689E-4],"categories":[],"categories_nodes":[],"categories_segments":[],"categories_sizes":[],"default_left":[1,0,0,0,0,0,1,0,0],"id":10,"left_children":[1,3,-1,-1,5,-1,7,-1,-1],"loss_changes":[6.5013003E0,1.8243825E0,0E0,0E0,2.2190146E0,0E0,4.1796255E-1,0E0,0E0],"parents":[2147483647,0,0,1,1,4,4,6,6],"right_children":[2,4,-1,-1,6,-1,8,-1,-1],"split_conditions":[2.7945024E-1,1.7406173E-1,8.433874E-2,3.54448E-2,2.2250141E-1,3.54448E-2,1.8077607E-1,-2.4302317E-2,8.869689E-4],"split_indices":[100,30,0,0,97,0,69,0,0],"split_type":[0,0,0,0,0,0,0,0,0],"sum_hessian":[1.700896E1,1.5963717E1,1.0452434E0,1.0452434E0,1.4918474E1,1.0452434E0,1.3873231E1,1.206781E1,1.8054204E0],"tree_param":{"num_deleted":"0","num_feature":"243","num_nodes":"9","size_leaf_vector":"1"}},{"base_weights":[-5.0355453E-2,6.341813E-2,-3.0355263E-1,3.5615817E-2,-4.2304873E-1,1.1102712E-2,-2.4396503E-2],"categories":[],"categories_nodes":[],"categories_segments":[],"categories_sizes":[],"default_left":[0,0,0,0,0,0,0],"id":11,"left_children":[1,-1,3,-1,5,-1,-1],"loss_changes":[6.3681455E0,0E0,2.224165E0,0E0,7.278025E-1,0E0,0E0],"parents":[2147483647,0,0,2,2,4,4],"right_children":[2,-1,4,-1,6,-1,-1],"split_conditions":[1.8420367E-1,6.341813E-2,4.383551E-1,3.5615817E-2,2.7178913E-1,1.1102712E-2,-2.4396503E-2],"split_indices":[30,0,46,0,38,0,0],"split_type":[0,0,0,0,0,0,0],"sum_hessian":[1.6919163E1,2.0794501E0,1.4839713E1,1.0397251E0,1.3799988E1,1.0397251E0,1.27602625E1],"tree_param":{"num_deleted":"0","num_feature":"243","num_nodes":"7","size_leaf_vector":"1"}},{"base_weights":[1.0704919E-1,-3.1728163E-1,1.5551464E-1,-2.4643453E-2,5.2092727E-2],"categories":[],"categories_nodes":[],"categories_segments":[],"categories_sizes":[],"default_left":[1,1,0,0,0],"id":12,"left_children":[1,3,-1,-1,-1],"loss_changes":[2.4167473E1,4.533614E0,0E0,0E0,0E0],"parents":[2147483647,0,0,1,1],"right_children":[2,4,-1,-1,-1],"split_conditions":[3.1018803E-1,2.7053204E-1,1.5551464E-1,-2.4643453E-2,5.2092727E-2],"split_indices":[76,188,0,0,0],"split_type":[0,0,0,0,0],"sum_hessian":[1.7189896E1,1.5845435E1,1.3444612E0,1.4597007E1,1.2484282E0],"tree_param":{"num_deleted":"0","num_feature":"243","num_nodes":"5","size_leaf_vector":"1"}},{"base_weights":[2.6541993E-3,1.2614913E-1,-3.1727725E-1,5.806662E-1,-2.4523867E-2,-1.4020398E-2,5.9891768E-2],"categories":[],"categories_nodes":[],"categories_segments":[],"categories_sizes":[],"default_left":[0,0,0,0,0,0,0],"id":13,"left_children":[1,-1,3,5,-1,-1,-1],"loss_changes":[1.53216915E1,0E0,2.9082885E0,2.0287523E0,0E0,0E0,0E0],"parents":[2147483647,0,0,2,2,3,3],"right_children":[2,-1,4,6,-1,-1,-1],"split_conditions":[3.3396038E-1,1.2614913E-1,2.5450584E-1,2.2640666E-1,-2.4523867E-2,-1.4020398E-2,5.9891768E-2],"split_indices":[188,0,97,97,0,0,0],"split_type":[0,0,0,0,0,0,0],"sum_hessian":[1.700896E1,1.1402655E0,1.5868695E1,2.185509E0,1.3683187E1,1.1402655E0,1.0452434E0],"tree_param":{"num_deleted":"0","num_feature":"243","num_nodes":"7","size_leaf_vector":"1"}},{"base_weights":[-5.0355453E-2,-2.4544565E-1,5.4634865E-2,-4.1964725E-1,3.6751464E-2,1.1102712E-2,-2.4328502E-2],"categories":[],"categories_nodes":[],"categories_segments":[],"categories_sizes":[],"default_left":[1,1,0,0,0,0,0],"id":14,"left_children":[1,3,-1,5,-1,-1,-1],"loss_changes":[4.264142E0,3.0623128E0,0E0,7.233269E-1,0E0,0E0,0E0],"parents":[2147483647,0,0,1,1,3,3],"right_children":[2,4,-1,6,-1,-1,-1],"split_conditions":[2.4490018E-1,1.9753589E-1,5.4634865E-2,2.4364592E-1,3.6751464E-2,1.1102712E-2,-2.4328502E-2],"split_indices":[97,30,0,35,0,0,0],"split_type":[0,0,0,0,0,0,0],"sum_hessian":[1.6919163E1,1.5123274E1,1.7958888E0,1.3327386E1,1.7958888E0,1.0397251E0,1.2287661E1],"tree_param":{"num_deleted":"0","num_feature":"243","num_nodes":"7","size_leaf_vector":"1"}},{"base_weights":[5.512105E-2,1.17095135E-1,-3.1243098E-1,-4.2689645E-1,3.253227E-2,1.0892948E-2,-2.4480246E-2],"categories":[],"categories_nodes":[],"categories_segments":[],"categories_sizes":[],"default_left":[0,0,1,0,0,0,0],"id":15,"left_children":[1,-1,3,5,-1,-1,-1],"loss_changes":[1.5944267E1,0E0,2.0939746E0,7.264385E-1,0E0,0E0,0E0],"parents":[2147483647,0,0,2,2,3,3],"right_children":[2,-1,4,6,-1,-1,-1],"split_conditions":[3.0418286E-1,1.17095135E-1,2.939738E-1,2.4428473E-1,3.253227E-2,1.0892948E-2,-2.4480246E-2],"split_indices":[55,0,194,35,0,0,0],"split_type":[0,0,0,0,0,0,0],"sum_hessian":[1.7099203E1,1.6239467E0,1.5475257E1,1.4328941E1,1.1463153E0,1.0507891E0,1.3278152E1],"tree_param":{"num_deleted":"0","num_feature":"243","num_nodes":"7","size_leaf_vector":"1"}},{"base_weights":[-5.0355453E-2,1.0865207E-1,-3.7307978E-1,3.5615817E-2,-2.4606887E-2],"categories":[],"categories_nodes":[],"categories_segments":[],"categories_sizes":[],"default_left":[0,0,0,0,0],"id":16,"left_children":[1,-1,3,-1,-1],"loss_changes":[1.3668512E1,0E0,2.4829464E0,0E0,0E0],"parents":[2147483647,0,0,2,2],"right_children":[2,-1,4,-1,-1],"split_conditions":[3.5648257E-1,1.0865207E-1,3.3266017E-1,3.5615817E-2,-2.4606887E-2],"split_indices":[37,0,218,0,0],"split_type":[0,0,0,0,0],"sum_hessian":[1.6919163E1,1.417807E0,1.5501356E1,1.0397251E0,1.4461631E1],"tree_param":{"num_deleted":"0","num_feature":"243","num_nodes":"5","size_leaf_vector":"1"}},{"base_weights":[-5.0355453E-2,1.6496712E-1,-2.4732156E-2],"categories":[],"categories_nodes":[],"categories_segments":[],"categories_sizes":[],"default_left":[0,0,0],"id":17,"left_children":[1,-1,-1],"loss_changes":[2.8299822E1,0E0,0E0],"parents":[2147483647,0,0],"right_children":[2,-1,-1],"split_conditions":[3.0444366E-1,1.6496712E-1,-2.4732156E-2],"split_indices":[100,0,0],"split_type":[0,0,0],"sum_hessian":[1.6919163E1,1.2287661E0,1.5690397E1],"tree_param":{"num_deleted":"0","num_feature":"243","num_nodes":"3","size_leaf_vector":"1"}},{"base_weights":[5.512105E-2,7.0504636E-2,-1.3711256E-1,-3.020194E-1,5.9654664E-2,-2.442955E-2,3.631338E-2],"categories":[],"categories_nodes":[],"categories_segments":[],"categories_sizes":[],"default_left":[0,0,1,1,0,0,0],"id":18,"left_children":[1,-1,3,5,-1,-1,-1],"loss_changes":[4.9076605E0,0E0,4.0372143E0,3.368999E0,0E0,0E0,0E0],"parents":[2147483647,0,0,2,2,3,3],"right_children":[2,-1,4,6,-1,-1,-1],"split_conditions":[3.1024662E-1,7.0504636E-2,2.877147E-1,2.3254526E-1,5.9654664E-2,-2.442955E-2,3.631338E-2],"split_indices":[194,0,55,162,0,0,0],"split_type":[0,0,0,0,0,0,0],"sum_hessian":[1.7099203E1,1.3373679E0,1.5761836E1,1.4711047E1,1.0507891E0,1.2896048E1,1.8149993E0],"tree_param":{"num_deleted":"0","num_feature":"243","num_nodes":"7","size_leaf_vector":"1"}},{"base_weights":[-5.0355453E-2,1.4253317E-1,-4.347284E-1,1.1102712E-2,-2.4627438E-2],"categories":[],"categories_nodes":[],"categories_segments":[],"categories_sizes":[],"default_left":[0,0,0,0,0],"id":19,"left_children":[1,-1,3,-1,-1],"loss_changes":[2.1220444E1,0E0,7.431972E-1,0E0,0E0],"parents":[2147483647,0,0,2,2],"right_children":[2,-1,4,-1,-1],"split_conditions":[2.9451165E-1,1.4253317E-1,3.34988E-1,1.1102712E-2,-2.4627438E-2],"split_indices":[18,0,168,0,0],"split_type":[0,0,0,0,0],"sum_hessian":[1.6919163E1,1.2287661E0,1.5690397E1,1.0397251E0,1.4650672E1],"tree_param":{"num_deleted":"0","num_feature":"243","num_nodes":"5","size_leaf_vector":"1"}},{"base_weights":[5.377822E-2,-3.085269E-1,1.00808024E-1,4.8273776E-2,-2.4535619E-2],"categories":[],"categories_nodes":[],"categories_segments":[],"categories_sizes":[],"default_left":[1,0,0,0,0],"id":20,"left_children":[1,3,-1,-1,-1],"loss_changes":[1.3517372E1,4.228744E0,0E0,0E0,0E0],"parents":[2147483647,0,0,1,1],"right_children":[2,4,-1,-1,-1],"split_conditions":[1.8468983E-1,3.1429693E-1,1.00808024E-1,4.8273776E-2,-2.4535619E-2],"split_indices":[69,18,0,0,0],"split_type":[0,0,0,0,0],"sum_hessian":[1.7137377E1,1.5177929E1,1.959448E0,1.361025E0,1.3816904E1],"tree_param":{"num_deleted":"0","num_feature":"243","num_nodes":"5","size_leaf_vector":"1"}},{"base_weights":[2.4582755E-3,-3.1813428E-1,1.3179228E-1,4.2526343E-1,-2.4454286E-2,-1.5410021E-2,5.0645884E-2],"categories":[],"categories_nodes":[],"categories_segments":[],"categories_sizes":[],"default_left":[1,0,0,0,0,0,0],"id":21,"left_children":[1,3,-1,5,-1,-1,-1],"loss_changes":[1.6046434E1,2.362195E0,0E0,1.9087477E0,0E0,0E0,0E0],"parents":[2147483647,0,0,1,1,3,3],"right_children":[2,4,-1,6,-1,-1,-1],"split_conditions":[3.088462E-1,1.5074702E-1,1.3179228E-1,1.8420367E-1,-2.4454286E-2,-1.5410021E-2,5.0645884E-2],"split_indices":[204,69,0,30,0,0,0],"split_type":[0,0,0,0,0,0,0],"sum_hessian":[1.7013603E1,1.5950908E1,1.0626957E0,2.7041302E0,1.3246778E1,1.4143682E0,1.2897621E0],"tree_param":{"num_deleted":"0","num_feature":"243","num_nodes":"7","size_leaf_vector":"1"}},{"base_weights":[5.4568578E-2,2.2971843E-1,-2.4775429E-2],"categories":[],"categories_nodes":[],"categories_segments":[],"categories_sizes":[],"default_left":[0,0,0],"id":22,"left_children":[1,-1,-1],"loss_changes":[4.75113E1,0E0,0E0],"parents":[2147483647,0,0],"right_children":[2,-1,-1],"split_conditions":[7.6506644E-1,2.2971843E-1,-2.4775429E-2],"split_indices":[214,0,0],"split_type":[0,0,0],"sum_hessian":[1.7113897E1,1.0549709E0,1.6058926E1],"tree_param":{"num_deleted":"0","num_feature":"243","num_nodes":"3","size_leaf_vector":"1"}},{"base_weights":[1.537879E-1,-2.4705248E-2,1.7669964E-1],"categories":[],"categories_nodes":[],"categories_segments":[],"categories_sizes":[],"default_left":[1,0,0],"id":23,"left_children":[1,-1,-1],"loss_changes":[4.2035583E1,0E0,0E0],"parents":[2147483647,0,0],"right_children":[2,-1,-1],"split_conditions":[2.804898E-1,-2.4705248E-2,1.7669964E-1],"split_indices":[37,0,0],"split_type":[0,0,0],"sum_hessian":[1.7396906E1,1.5315222E1,2.081685E0],"tree_param":{"num_deleted":"0","num_feature":"243","num_nodes":"3","size_leaf_vector":"1"}},{"base_weights":[5.4499075E-2,-1.4424482E-1,8.466538E-2,5.768574E-2,-3.0561677E-1,3.652608E-2,-2.1210343E-2],"categories":[],"categories_nodes":[],"categories_segments":[],"categories_sizes":[],"default_left":[1,0,0,0,0,0,0],"id":24,"left_children":[1,3,-1,-1,5,-1,-1],"loss_changes":[6.144927E0,3.9298177E0,0E0,0E0,2.273545E0,0E0,0E0],"parents":[2147483647,0,0,1,1,4,4],"right_children":[2,4,-1,-1,6,-1,-1],"split_conditions":[3.283059E-1,2.1441436E-1,8.466538E-2,5.768574E-2,3.4450507E-1,3.652608E-2,-2.1210343E-2],"split_indices":[1,185,0,0,76,0,0],"split_type":[0,0,0,0,0,0,0],"sum_hessian":[1.7116728E1,1.6078781E1,1.0379468E0,1.097983E0,1.4980799E1,1.0085857E0,1.3972213E1],"tree_param":{"num_deleted":"0","num_feature":"243","num_nodes":"7","size_leaf_vector":"1"}},{"base_weights":[-1.0245559E-1,-2.4643647E-2,1.1347683E-1],"categories":[],"categories_nodes":[],"categories_segments":[],"categories_sizes":[],"default_left":[1,0,0],"id":25,"left_children":[1,-1,-1],"loss_changes":[1.75752E1,0E0,0E0],"parents":[2147483647,0,0],"right_children":[2,-1,-1],"split_conditions":[2.6026726E-1,-2.4643647E-2,1.1347683E-1],"split_indices":[100,0,0],"split_type":[0,0,0],"sum_hessian":[1.677043E1,1.5080475E1,1.6899548E0],"tree_param":{"num_deleted":"0","num_feature":"243","num_nodes":"3","size_leaf_vector":"1"}},{"base_weights":[1.0425867E-1,1.8036538E-1,-3.2163855E-1,6.1194785E-2,-2.468979E-2],"categories":[],"categories_nodes":[],"categories_segments":[],"categories_sizes":[],"default_left":[0,0,0,0,0],"id":26,"left_children":[1,-1,3,-1,-1],"loss_changes":[2.8409616E1,0E0,5.181555E0,0E0,0E0],"parents":[2147483647,0,0,2,2],"right_children":[2,-1,4,-1,-1],"split_conditions":[3.705222E-1,1.8036538E-1,4.1833347E-1,6.1194785E-2,-2.468979E-2],"split_indices":[232,0,204,0,0],"split_type":[0,0,0,0,0],"sum_hessian":[1.72644E1,1.0617224E0,1.6202679E1,1.0116308E0,1.5191048E1],"tree_param":{"num_deleted":"0","num_feature":"243","num_nodes":"5","size_leaf_vector":"1"}},{"base_weights":[-1.0180311E-1,8.612212E-2,-3.150524E-1,6.0051333E-2,-2.4610586E-2],"categories":[],"categories_nodes":[],"categories_segments":[],"categories_sizes":[],"default_left":[0,0,0,0,0],"id":27,"left_children":[1,-1,3,-1,-1],"loss_changes":[7.446042E0,0E0,5.08562E0,0E0,0E0],"parents":[2147483647,0,0,2,2],"right_children":[2,-1,4,-1,-1],"split_conditions":[4.771725E-1,8.612212E-2,3.7427437E-1,6.0051333E-2,-2.4610586E-2],"split_indices":[1,0,232,0,0],"split_type":[0,0,0,0,0],"sum_hessian":[1.6745617E1,1.0119277E0,1.573369E1,1.0414971E0,1.4692193E1],"tree_param":{"num_deleted":"0","num_feature":"243","num_nodes":"5","size_leaf_vector":"1"}},{"base_weights":[-1.0222816E-1,8.6529545E-2,-3.7084943E-1,3.4954965E-2,-2.4555733E-2],"categories":[],"categories_nodes":[],"categories_segments":[],"categories_sizes":[],"default_left":[0,0,0,0,0],"id":28,"left_children":[1,-1,3,-1,-1],"loss_changes":[9.386692E0,0E0,2.442735E0,0E0,0E0],"parents":[2147483647,0,0,2,2],"right_children":[2,-1,4,-1,-1],"split_conditions":[8.133382E-1,8.6529545E-2,3.502082E-1,3.4954965E-2,-2.4555733E-2],"split_indices":[106,0,182,0,0],"split_type":[0,0,0,0,0],"sum_hessian":[1.676213E1,1.4469575E0,1.5315173E1,1.0611945E0,1.4253979E1],"tree_param":{"num_deleted":"0","num_feature":"243","num_nodes":"5","size_leaf_vector":"1"}},{"base_weights":[-1.0216693E-1,-2.5513774E-1,5.9931803E-2,-4.2678267E-1,5.0454624E-2,1.12977065E-2,-2.4459038E-2],"categories":[],"categories_nodes":[],"categories_segments":[],"categories_sizes":[],"default_left":[1,1,0,0,0,0,0],"id":29,"left_children":[1,3,-1,5,-1,-1,-1],"loss_changes":[3.839819E0,4.0579844E0,0E0,7.385986E-1,0E0,0E0,0E0],"parents":[2147483647,0,0,1,1,3,3],"right_children":[2,4,-1,6,-1,-1,-1],"split_conditions":[2.8704476E-1,2.8531083E-1,5.9931803E-2,2.3145755E-1,5.0454624E-2,1.12977065E-2,-2.4459038E-2],"split_indices":[187,112,0,97,0,0,0],"split_type":[0,0,0,0,0,0,0],"sum_hessian":[1.6760149E1,1.5715869E1,1.0442812E0,1.4420421E1,1.2954481E0,1.0295262E0,1.3390894E1],"tree_param":{"num_deleted":"0","num_feature":"243","num_nodes":"7","size_leaf_vector":"1"}},{"base_weights":[2.7588669E-3,-2.0067285E-1,8.521536E-2,3.5181593E-2,-3.0470923E-1,3.4054857E-2,-4.2315632E-1,-2.4274506E-2,6.3403405E-4],"categories":[],"categories_nodes":[],"categories_segments":[],"categories_sizes":[],"default_left":[1,0,0,0,0,0,1,0,0],"id":30,"left_children":[1,3,-1,-1,5,-1,7,-1,-1],"loss_changes":[6.5743146E0,1.8115761E0,0E0,0E0,2.1474595E0,0E0,4.0909505E-1,0E0,0E0],"parents":[2147483647,0,0,1,1,4,4,6,6],"right_children":[2,4,-1,-1,6,-1,8,-1,-1],"split_conditions":[2.7977207E-1,3.250892E-1,8.521536E-2,3.5181593E-2,1.7406173E-1,3.4054857E-2,1.8077607E-1,-2.4274506E-2,6.3403405E-4],"split_indices":[100,218,0,0,30,0,69,0,0],"split_type":[0,0,0,0,0,0,0,0,0],"sum_hessian":[1.7004698E1,1.5976646E1,1.0280526E0,1.0537674E0,1.4922878E1,1.0911639E0,1.3831715E1,1.2001347E1,1.8303684E0],"tree_param":{"num_deleted":"0","num_feature":"243","num_nodes":"9","size_leaf_vector":"1"}},{"base_weights":[-5.021832E-2,1.1868054E0,-3.011605E-1,1.1593763E-2,7.5906634E-2,-4.2175764E-1,3.5785846E-2,1.1397065E-2,-2.4365207E-2],"categories":[],"categories_nodes":[],"categories_segments":[],"categories_sizes":[],"default_left":[0,1,1,0,0,0,0,0,0],"id":31,"left_children":[1,3,5,-1,-1,7,-1,-1,-1],"loss_changes":[5.9180846E0,6.678591E-1,2.2259436E0,0E0,0E0,7.351923E-1,0E0,0E0,0E0],"parents":[2147483647,0,0,1,1,2,2,5,5],"right_children":[2,4,6,-1,-1,8,-1,-1,-1],"split_conditions":[1.8420367E-1,1.3583942E-1,3.02701E-1,1.1593763E-2,7.5906634E-2,4.1787255E-1,3.5785846E-2,1.1397065E-2,-2.4365207E-2],"split_indices":[30,69,162,0,0,182,0,0,0],"split_type":[0,0,0,0,0,0,0,0,0],"sum_hessian":[1.691328E1,2.2234333E0,1.4689846E1,1.0105963E0,1.2128369E0,1.3655597E1,1.0342501E0,1.0243776E0,1.2631219E1],"tree_param":{"num_deleted":"0","num_feature":"243","num_nodes":"9","size_leaf_vector":"1"}},{"base_weights":[1.05124205E-1,-3.1487912E-1,1.3979499E-1,-2.4594825E-2,4.9703002E-2],"categories":[],"categories_nodes":[],"categories_segments":[],"categories_sizes":[],"default_left":[1,1,0,0,0],"id":32,"left_children":[1,3,-1,-1,-1],"loss_changes":[2.1494682E1,4.353025E0,0E0,0E0,0E0],"parents":[2147483647,0,0,1,1],"right_children":[2,4,-1,-1,-1],"split_conditions":[3.1018803E-1,2.7053204E-1,1.3979499E-1,-2.4594825E-2,4.9703002E-2],"split_indices":[76,188,0,0,0],"split_type":[0,0,0,0,0],"sum_hessian":[1.724058E1,1.5676598E1,1.563983E0,1.4358936E1,1.3176612E0],"tree_param":{"num_deleted":"0","num_feature":"243","num_nodes":"5","size_leaf_vector":"1"}},{"base_weights":[3.0217883E-3,1.16137706E-1,-3.149813E-1,-2.4480756E-2,5.692219E-1,5.818188E-2,-1.3967198E-2],"categories":[],"categories_nodes":[],"categories_segments":[],"categories_sizes":[],"default_left":[0,0,1,0,1,0,0],"id":33,"left_children":[1,-1,3,-1,5,-1,-1],"loss_changes":[1.4006538E1,0E0,2.8583817E0,0E0,1.9481211E0,0E0,0E0],"parents":[2147483647,0,0,2,2,4,4],"right_children":[2,-1,4,-1,6,-1,-1],"split_conditions":[3.3396038E-1,1.16137706E-1,2.3145834E-1,-2.4480756E-2,1.7824544E-1,5.818188E-2,-1.3967198E-2],"split_indices":[188,0,97,0,69,0,0],"split_type":[0,0,0,0,0,0,0],"sum_hessian":[1.699544E1,1.2889283E0,1.57065115E1,1.3488702E1,2.2178104E0,1.0858673E0,1.1319431E0],"tree_param":{"num_deleted":"0","num_feature":"243","num_nodes":"7","size_leaf_vector":"1"}},{"base_weights":[-5.042085E-2,-2.4329394E-1,5.141878E-2,-4.1777682E-1,3.4868956E-2,1.1452944E-2,-2.4282437E-2],"categories":[],"categories_nodes":[],"categories_segments":[],"categories_sizes":[],"default_left":[1,1,0,0,0,0,0],"id":34,"left_children":[1,3,-1,5,-1,-1,-1],"loss_changes":[3.9789252E0,2.919284E0,0E0,7.3163605E-1,0E0,0E0,0E0],"parents":[2147483647,0,0,1,1,3,3],"right_children":[2,4,-1,6,-1,-1,-1],"split_conditions":[2.4490018E-1,1.9753589E-1,5.141878E-2,3.3283606E-1,3.4868956E-2,1.1452944E-2,-2.4282437E-2],"split_indices":[97,30,0,168,0,0,0],"split_type":[0,0,0,0,0,0,0],"sum_hessian":[1.6920471E1,1.501117E1,1.9093018E0,1.3131347E1,1.8798232E0,1.0214844E0,1.2109862E1],"tree_param":{"num_deleted":"0","num_feature":"243","num_nodes":"7","size_leaf_vector":"1"}},{"base_weights":[5.362146E-2,1.07243754E-1,-3.1023318E-1,-4.252707E-1,3.1329155E-2,-2.4439495E-2,1.1208922E-2],"categories":[],"categories_nodes":[],"categories_segments":[],"categories_sizes":[],"default_left":[0,0,1,1,0,0,0],"id":35,"left_children":[1,-1,3,5,-1,-1,-1],"loss_changes":[1.4470022E1,0E0,2.0260227E0,7.340212E-1,0E0,0E0,0E0],"parents":[2147483647,0,0,2,2,3,3],"right_children":[2,-1,4,6,-1,-1,-1],"split_conditions":[3.0418286E-1,1.07243754E-1,2.939738E-1,2.75226E-1,3.1329155E-2,-2.4439495E-2,1.1208922E-2],"split_indices":[55,0,194,112,0,0,0],"split_type":[0,0,0,0,0,0,0],"sum_hessian":[1.7142183E1,1.8150902E0,1.5327094E1,1.4137151E1,1.1899426E0,1.3102994E1,1.034157E0],"tree_param":{"num_deleted":"0","num_feature":"243","num_nodes":"7","size_leaf_vector":"1"}},{"base_weights":[-4.940442E-2,1.00641504E-1,-3.710187E-1,3.4206923E-2,-2.4559282E-2],"categories":[],"categories_nodes":[],"categories_segments":[],"categories_sizes":[],"default_left":[0,0,0,0,0],"id":36,"left_children":[1,-1,3,-1,-1],"loss_changes":[1.2608265E1,0E0,2.4047725E0,0E0,0E0],"parents":[2147483647,0,0,2,2],"right_children":[2,-1,4,-1,-1],"split_conditions":[3.5648257E-1,1.00641504E-1,3.3266017E-1,3.4206923E-2,-2.4559282E-2],"split_indices":[37,0,218,0,0],"split_type":[0,0,0,0,0],"sum_hessian":[1.6884016E1,1.5684404E0,1.5315576E1,1.0860444E0,1.4229531E1],"tree_param":{"num_deleted":"0","num_feature":"243","num_nodes":"5","size_leaf_vector":"1"}},{"base_weights":[-4.907155E-2,1.4872031E-1,-2.4686031E-2],"categories":[],"categories_nodes":[],"categories_segments":[],"categories_sizes":[],"default_left":[0,0,0],"id":37,"left_children":[1,-1,-1],"loss_changes":[2.549429E1,0E0,0E0],"parents":[2147483647,0,0],"right_children":[2,-1,-1],"split_conditions":[3.0444366E-1,1.4872031E-1,-2.4686031E-2],"split_indices":[100,0,0],"split_type":[0,0,0],"sum_hessian":[1.6871172E1,1.433625E0,1.5437547E1],"tree_param":{"num_deleted":"0","num_feature":"243","num_nodes":"3","size_leaf_vector":"1"}},{"base_weights":[5.3968016E-2,6.645579E-2,-1.3545194E-1,-3.0135936E-1,6.1163433E-2,-2.4379592E-2,3.261726E-2],"categories":[],"categories_nodes":[],"categories_segments":[],"categories_sizes":[],"default_left":[0,0,1,1,0,0,0],"id":38,"left_children":[1,-1,3,5,-1,-1,-1],"loss_changes":[4.559706E0,0E0,4.1320086E0,3.103088E0,0E0,0E0,0E0],"parents":[2147483647,0,0,2,2,3,3],"right_children":[2,-1,4,6,-1,-1,-1],"split_conditions":[3.1024662E-1,6.645579E-2,2.9818404E-1,2.3254526E-1,6.1163433E-2,-2.4379592E-2,3.261726E-2],"split_indices":[194,0,55,162,0,0,0],"split_type":[0,0,0,0,0,0,0],"sum_hessian":[1.7132414E1,1.4376428E0,1.5694771E1,1.4680413E1,1.0143574E0,1.2690955E1,1.9894581E0],"tree_param":{"num_deleted":"0","num_feature":"243","num_nodes":"7","size_leaf_vector":"1"}},{"base_weights":[-4.9260017E-2,1.2991875E-1,-4.33137E-1,1.0812987E-2,-2.4580315E-2],"categories":[],"categories_nodes":[],"categories_segments":[],"categories_sizes":[],"default_left":[0,0,0,0,0],"id":39,"left_children":[1,-1,3,-1,-1],"loss_changes":[1.9296438E1,0E0,7.317369E-1,0E0,0E0],"parents":[2147483647,0,0,2,2],"right_children":[2,-1,4,-1,-1],"split_conditions":[2.9451165E-1,1.2991875E-1,3.34988E-1,1.0812987E-2,-2.4580315E-2],"split_indices":[18,0,168,0,0],"split_type":[0,0,0,0,0],"sum_hessian":[1.6878384E1,1.4067979E0,1.5471585E1,1.0550332E0,1.4416553E1],"tree_param":{"num_deleted":"0","num_feature":"243","num_nodes":"5","size_leaf_vector":"1"}},{"base_weights":[5.1949963E-2,-3.066187E-1,1.8785471E0,-2.4544647E-2,6.003824E-2,1.3470075E-1,9.897027E-3],"categories":[],"categories_nodes":[],"categories_segments":[],"categories_sizes":[],"default_left":[1,1,0,0,0,0,0],"id":40,"left_children":[1,3,5,-1,-1,-1,-1],"loss_changes":[1.24887295E1,5.051455E0,3.7493649E0,0E0,0E0,0E0,0E0],"parents":[2147483647,0,0,1,1,2,2],"right_children":[2,4,6,-1,-1,-1,-1],"split_conditions":[2.5992233E-1,2.993836E-1,2.3287366E-1,-2.4544647E-2,6.003824E-2,1.3470075E-1,9.897027E-3],"split_indices":[18,168,30,0,0,0,0],"split_type":[0,0,0,0,0,0,0],"sum_hessian":[1.7188473E1,1.5063569E1,2.1249049E0,1.40235615E1,1.0400078E0,1.0246972E0,1.1002076E0],"tree_param":{"num_deleted":"0","num_feature":"243","num_nodes":"7","size_leaf_vector":"1"}},{"base_weights":[2.7608143E-3,1.3232484E-1,-3.1815898E-1,-2.4632255E-2,5.902139E-2],"categories":[],"categories_nodes":[],"categories_segments":[],"categories_sizes":[],"default_left":[0,0,1,0,0],"id":41,"left_children":[1,-1,3,-1,-1],"loss_changes":[1.611316E1,0E0,5.0119987E0,0E0,0E0],"parents":[2147483647,0,0,2,2],"right_children":[2,-1,4,-1,-1],"split_conditions":[8.1476194E-1,1.3232484E-1,3.0651784E-1,-2.4632255E-2,5.902139E-2],"split_indices":[136,0,204,0,0],"split_type":[0,0,0,0,0],"sum_hessian":[1.6999367E1,1.0557234E0,1.5943644E1,1.4882122E1,1.0615213E0],"tree_param":{"num_deleted":"0","num_feature":"243","num_nodes":"5","size_leaf_vector":"1"}},{"base_weights":[5.4756396E-2,2.0177956E-1,-2.4729332E-2],"categories":[],"categories_nodes":[],"categories_segments":[],"categories_sizes":[],"default_left":[0,0,0],"id":42,"left_children":[1,-1,-1],"loss_changes":[4.1580364E1,0E0,0E0],"parents":[2147483647,0,0],"right_children":[2,-1,-1],"split_conditions":[7.6506644E-1,2.0177956E-1,-2.4729332E-2],"split_indices":[214,0,0],"split_type":[0,0,0],"sum_hessian":[1.7101162E1,1.3041775E0,1.5796985E1],"tree_param":{"num_deleted":"0","num_feature":"243","num_nodes":"3","size_leaf_vector":"1"}},{"base_weights":[1.4862813E-1,-2.4659267E-2,3.0975907E0,1.9439037E-1,3.4463227E-2],"categories":[],"categories_nodes":[],"categories_segments":[],"categories_sizes":[],"default_left":[1,0,0,0,0],"id":43,"left_children":[1,-1,3,-1,-1],"loss_changes":[3.6579563E1,0E0,3.8812904E0,0E0,0E0],"parents":[2147483647,0,0,2,2],"right_children":[2,-1,4,-1,-1],"split_conditions":[2.804898E-1,-2.4659267E-2,3.4329668E-1,1.9439037E-1,3.4463227E-2],"split_indices":[37,0,51,0,0],"split_type":[0,0,0,0,0],"sum_hessian":[1.7519669E1,1.50721245E1,2.4475439E0,1.3803167E0,1.0672271E0],"tree_param":{"num_deleted":"0","num_feature":"243","num_nodes":"5","size_leaf_vector":"1"}},{"base_weights":[5.39758E-2,-1.4504121E-1,8.59644E-2,5.5107284E-2,-3.0504784E-1,3.5180293E-2,-2.1171086E-2],"categories":[],"categories_nodes":[],"categories_segments":[],"categories_sizes":[],"default_left":[1,0,0,0,0,0,0],"id":44,"left_children":[1,3,-1,-1,5,-1,-1],"loss_changes":[6.258E0,3.75195E0,0E0,0E0,2.2027416E0,0E0,0E0],"parents":[2147483647,0,0,1,1,4,4],"right_children":[2,4,-1,-1,6,-1,-1],"split_conditions":[3.39716E-1,2.1441436E-1,8.59644E-2,5.5107284E-2,3.4450507E-1,3.5180293E-2,-2.1171086E-2],"split_indices":[1,185,0,0,76,0,0],"split_type":[0,0,0,0,0,0,0],"sum_hessian":[1.7129665E1,1.6116528E1,1.0131388E0,1.1630328E0,1.4953495E1,1.051324E0,1.390217E1],"tree_param":{"num_deleted":"0","num_feature":"243","num_nodes":"7","size_leaf_vector":"1"}},{"base_weights":[-1.0121881E-1,-2.4597606E-2,1.042302E-1],"categories":[],"categories_nodes":[],"categories_segments":[],"categories_sizes":[],"default_left":[1,0,0],"id":45,"left_children":[1,-1,-1],"loss_changes":[1.6156225E1,0E0,0E0],"parents":[2147483647,0,0],"right_children":[2,-1,-1],"split_conditions":[2.6026726E-1,-2.4597606E-2,1.042302E-1],"split_indices":[100,0,0],"split_type":[0,0,0],"sum_hessian":[1.6715918E1,1.4838374E1,1.8775427E0],"tree_param":{"num_deleted":"0","num_feature":"243","num_nodes":"3","size_leaf_vector":"1"}},{"base_weights":[1.0362384E-1,1.7216937E-1,-3.20569E-1,5.8451977E-2,-2.4656074E-2],"categories":[],"categories_nodes":[],"categories_segments":[],"categories_sizes":[],"default_left":[0,0,0,0,0],"id":46,"left_children":[1,-1,3,-1,-1],"loss_changes":[2.6995047E1,0E0,4.9797177E0,0E0,0E0],"parents":[2147483647,0,0,2,2],"right_children":[2,-1,4,-1,-1],"split_conditions":[3.6104026E-1,1.7216937E-1,4.1833347E-1,5.8451977E-2,-2.4656074E-2],"split_indices":[232,0,204,0,0],"split_type":[0,0,0,0,0],"sum_hessian":[1.7275665E1,1.1448112E0,1.6130854E1,1.0750653E0,1.5055789E1],"tree_param":{"num_deleted":"0","num_feature":"243","num_nodes":"5","size_leaf_vector":"1"}},{"base_weights":[-9.9629804E-2,-3.1373063E-1,8.5622124E-2,-2.457469E-2,5.8120023E-2],"categories":[],"categories_nodes":[],"categories_segments":[],"categories_sizes":[],"default_left":[1,1,0,0,0],"id":47,"left_children":[1,3,-1,-1,-1],"loss_changes":[7.388069E0,4.9370356E0,0E0,0E0,0E0],"parents":[2147483647,0,0,1,1],"right_children":[2,4,-1,-1,-1],"split_conditions":[3.0819327E-1,3.2334304E-1,8.5622124E-2,-2.457469E-2,5.8120023E-2],"split_indices":[232,1,0,0,0],"split_type":[0,0,0,0,0],"sum_hessian":[1.6658302E1,1.5637553E1,1.0207491E0,1.4552149E1,1.0854042E0],"tree_param":{"num_deleted":"0","num_feature":"243","num_nodes":"5","size_leaf_vector":"1"}},{"base_weights":[-1.0073185E-1,8.050276E-2,-3.6861777E-1,3.670225E-2,-2.4518535E-2],"categories":[],"categories_nodes":[],"categories_segments":[],"categories_sizes":[],"default_left":[0,0,0,0,0],"id":48,"left_children":[1,-1,3,-1,-1],"loss_changes":[8.705085E0,0E0,2.5236862E0,0E0,0E0],"parents":[2147483647,0,0,2,2],"right_children":[2,-1,4,-1,-1],"split_conditions":[8.133382E-1,8.050276E-2,3.418405E-1,3.670225E-2,-2.4518535E-2],"split_indices":[106,0,182,0,0],"split_type":[0,0,0,0,0],"sum_hessian":[1.6699467E1,1.5825671E0,1.5116899E1,1.0031188E0,1.411378E1],"tree_param":{"num_deleted":"0","num_feature":"243","num_nodes":"5","size_leaf_vector":"1"}},{"base_weights":[-1.0055916E-1,6.1538763E-2,-2.5454417E-1,-4.2584014E-1,4.8201527E-2,-2.4427332E-2,1.1156833E-2],"categories":[],"categories_nodes":[],"categories_segments":[],"categories_sizes":[],"default_left":[0,0,1,1,0,0,0],"id":49,"left_children":[1,-1,3,5,-1,-1,-1],"loss_changes":[3.9409094E0,0E0,3.8942132E0,7.3270917E-1,0E0,0E0,0E0],"parents":[2147483647,0,0,2,2,3,3],"right_children":[2,-1,4,6,-1,-1,-1],"split_conditions":[3.791271E-1,6.1538763E-2,2.8531083E-1,3.0826014E-1,4.8201527E-2,-2.4427332E-2,1.1156833E-2],"split_indices":[187,0,112,46,0,0,0],"split_type":[0,0,0,0,0,0,0],"sum_hessian":[1.6695246E1,1.0058626E0,1.5689383E1,1.4326096E1,1.3632876E0,1.3289245E1,1.0368507E0],"tree_param":{"num_deleted":"0","num_feature":"243","num_nodes":"7","size_leaf_vector":"1"}},{"base_weights":[2.8952141E-3,-1.9884485E-1,8.0806695E-2,3.6750693E-2,-3.0399033E-1,3.2668073E-2,-4.222326E-1,-2.4238244E-2,4.942708E-4],"categories":[],"categories_nodes":[],"categories_segments":[],"categories_sizes":[],"default_left":[1,0,0,0,0,0,1,0,0],"id":50,"left_children":[1,3,-1,-1,5,-1,7,-1,-1],"loss_changes":[6.1788654E0,1.8816702E0,0E0,0E0,2.074183E0,0E0,4.0328288E-1,0E0,0E0],"parents":[2147483647,0,0,1,1,4,4,6,6],"right_children":[2,4,-1,-1,6,-1,8,-1,-1],"split_conditions":[2.7977207E-1,2.2221668E-1,8.0806695E-2,3.6750693E-2,1.7406173E-1,3.2668073E-2,1.8077607E-1,-2.4238244E-2,4.942708E-4],"split_indices":[100,97,0,0,30,0,69,0,0],"split_type":[0,0,0,0,0,0,0,0,0],"sum_hessian":[1.6997906E1,1.5887829E1,1.1100761E0,1.0015985E0,1.488623E1,1.1389633E0,1.3747267E1,1.1902945E1,1.8443227E0],"tree_param":{"num_deleted":"0","num_feature":"243","num_nodes":"9","size_leaf_vector":"1"}},{"base_weights":[-4.938307E-2,1.1239102E0,-2.986939E-1,1.1190753E-2,7.142667E-2,-4.2003924E-1,3.467454E-2,-2.4319088E-2,1.1435917E-2],"categories":[],"categories_nodes":[],"categories_segments":[],"categories_sizes":[],"default_left":[0,1,1,0,0,1,0,0,0],"id":51,"left_children":[1,3,5,-1,-1,7,-1,-1,-1],"loss_changes":[5.566259E0,5.9706974E-1,2.161983E0,0E0,0E0,7.339184E-1,0E0,0E0,0E0],"parents":[2147483647,0,0,1,1,2,2,5,5],"right_children":[2,4,6,-1,-1,8,-1,-1,-1],"split_conditions":[1.8420367E-1,1.3583942E-1,3.0826014E-1,1.1190753E-2,7.142667E-2,2.9818404E-1,3.467454E-2,-2.4319088E-2,1.1435917E-2],"split_indices":[30,69,46,0,0,55,0,0,0],"split_type":[0,0,0,0,0,0,0,0,0],"sum_hessian":[1.6881336E1,2.34366E0,1.4537676E1,1.0312545E0,1.3124055E0,1.3467266E1,1.0704103E0,1.2444924E1,1.0223408E0],"tree_param":{"num_deleted":"0","num_feature":"243","num_nodes":"9","size_leaf_vector":"1"}},{"base_weights":[1.0265398E-1,-3.1247035E-1,1.2596111E-1,-2.4545284E-2,4.73752E-2],"categories":[],"categories_nodes":[],"categories_segments":[],"categories_sizes":[],"default_left":[1,1,0,0,0],"id":52,"left_children":[1,3,-1,-1,-1],"loss_changes":[1.9146957E1,4.176593E0,0E0,0E0,0E0],"parents":[2147483647,0,0,1,1],"right_children":[2,4,-1,-1,-1],"split_conditions":[3.1018803E-1,2.7053204E-1,1.2596111E-1,-2.4545284E-2,4.73752E-2],"split_indices":[76,188,0,0,0],"split_type":[0,0,0,0,0],"sum_hessian":[1.7301643E1,1.5508286E1,1.7933567E0,1.41191435E1,1.3891437E0],"tree_param":{"num_deleted":"0","num_feature":"243","num_nodes":"5","size_leaf_vector":"1"}},{"base_weights":[3.0516088E-3,1.06931426E-1,-3.1267512E-1,5.499085E-1,-2.4431933E-2,-1.4450512E-2,5.9438676E-2],"categories":[],"categories_nodes":[],"categories_segments":[],"categories_sizes":[],"default_left":[0,0,0,0,0,0,0],"id":53,"left_children":[1,-1,3,5,-1,-1,-1],"loss_changes":[1.2798199E1,0E0,2.7799323E0,2.0981421E0,0E0,0E0,0E0],"parents":[2147483647,0,0,2,2,3,3],"right_children":[2,-1,4,6,-1,-1,-1],"split_conditions":[3.3396038E-1,1.06931426E-1,2.5450584E-1,2.3061463E-1,-2.4431933E-2,-1.4450512E-2,5.9438676E-2],"split_indices":[188,0,97,97,0,0,0],"split_type":[0,0,0,0,0,0,0],"sum_hessian":[1.698939E1,1.4445794E0,1.554481E1,2.2737288E0,1.3271082E1,1.2197052E0,1.0540236E0],"tree_param":{"num_deleted":"0","num_feature":"243","num_nodes":"7","size_leaf_vector":"1"}},{"base_weights":[-5.0581995E-2,7.8093535E-1,-2.8615284E-1,7.224508E-2,-1.5456867E-2,-2.4215465E-2,3.313982E-2],"categories":[],"categories_nodes":[],"categories_segments":[],"categories_sizes":[],"default_left":[0,0,1,0,0,0,0],"id":54,"left_children":[1,3,5,-1,-1,-1,-1],"loss_changes":[3.7343216E0,3.5045605E0,3.0849001E0,0E0,0E0,0E0,0E0],"parents":[2147483647,0,0,1,1,2,2],"right_children":[2,4,6,-1,-1,-1,-1],"split_conditions":[2.6788792E-1,1.8077607E-1,1.9753589E-1,7.224508E-2,-1.5456867E-2,-2.4215465E-2,3.313982E-2],"split_indices":[97,69,30,0,0,0,0],"split_type":[0,0,0,0,0,0,0],"sum_hessian":[1.6923382E1,3.224936E0,1.3698446E1,1.8018906E0,1.4230454E0,1.1737166E1,1.9612799E0],"tree_param":{"num_deleted":"0","num_feature":"243","num_nodes":"7","size_leaf_vector":"1"}},{"base_weights":[5.1901225E-2,-2.59601E-1,1.19350806E-1,-2.4623668E-2,6.633397E-2],"categories":[],"categories_nodes":[],"categories_segments":[],"categories_sizes":[],"default_left":[1,1,0,0,0],"id":55,"left_children":[1,3,-1,-1,-1],"loss_changes":[1.3850109E1,6.9146795E0,0E0,0E0,0E0],"parents":[2147483647,0,0,1,1],"right_children":[2,4,-1,-1,-1],"split_conditions":[2.7983147E-1,2.7641055E-1,1.19350806E-1,-2.4623668E-2,6.633397E-2],"split_indices":[106,112,0,0,0],"split_type":[0,0,0,0,0],"sum_hessian":[1.7188831E1,1.5949949E1,1.2388816E0,1.4509446E1,1.4405029E0],"tree_param":{"num_deleted":"0","num_feature":"243","num_nodes":"5","size_leaf_vector":"1"}},{"base_weights":[-4.863719E-2,9.355868E-2,-3.6899334E-1,3.5844624E-2,-2.4525164E-2],"categories":[],"categories_nodes":[],"categories_segments":[],"categories_sizes":[],"default_left":[0,0,0,0,0],"id":56,"left_children":[1,-1,3,-1,-1],"loss_changes":[1.1670212E1,0E0,2.4805667E0,0E0,0E0],"parents":[2147483647,0,0,2,2],"right_children":[2,-1,4,-1,-1],"split_conditions":[3.5648257E-1,9.355868E-2,3.2561114E-1,3.5844624E-2,-2.4525164E-2],"split_indices":[37,0,218,0,0],"split_type":[0,0,0,0,0],"sum_hessian":[1.6852598E1,1.7177364E0,1.5134861E1,1.0300294E0,1.4104832E1],"tree_param":{"num_deleted":"0","num_feature":"243","num_nodes":"5","size_leaf_vector":"1"}},{"base_weights":[-4.822112E-2,1.847664E-1,-2.472107E-2],"categories":[],"categories_nodes":[],"categories_segments":[],"categories_sizes":[],"default_left":[0,0,0],"id":57,"left_children":[1,-1,-1],"loss_changes":[3.1614746E1,0E0,0E0],"parents":[2147483647,0,0],"right_children":[2,-1,-1],"split_conditions":[7.353551E-1,1.847664E-1,-2.472107E-2],"split_indices":[231,0,0],"split_type":[0,0,0],"sum_hessian":[1.6832968E1,1.0171843E0,1.5815783E1],"tree_param":{"num_deleted":"0","num_feature":"243","num_nodes":"3","size_leaf_vector":"1"}},{"base_weights":[5.2732993E-2,6.2675945E-2,-1.3380483E-1,-2.9926813E-1,5.847135E-2,-2.4330927E-2,3.1284038E-2],"categories":[],"categories_nodes":[],"categories_segments":[],"categories_sizes":[],"default_left":[0,0,1,1,0,0,0],"id":58,"left_children":[1,-1,3,5,-1,-1,-1],"loss_changes":[4.2368174E0,0E0,3.935408E0,2.999154E0,0E0,0E0,0E0],"parents":[2147483647,0,0,2,2,3,3],"right_children":[2,-1,4,6,-1,-1,-1],"split_conditions":[3.1024662E-1,6.2675945E-2,2.9818404E-1,2.3254526E-1,5.847135E-2,-2.4330927E-2,3.1284038E-2],"split_indices":[194,0,55,162,0,0,0],"split_type":[0,0,0,0,0,0,0],"sum_hessian":[1.7166237E1,1.539058E0,1.5627178E1,1.4550195E1,1.0769837E0,1.24935055E1,2.0566897E0],"tree_param":{"num_deleted":"0","num_feature":"243","num_nodes":"7","size_leaf_vector":"1"}},{"base_weights":[-4.8510965E-2,1.1852437E-1,-4.3151733E-1,1.05146235E-2,-2.4532413E-2],"categories":[],"categories_nodes":[],"categories_segments":[],"categories_sizes":[],"default_left":[0,0,0,0,0],"id":59,"left_children":[1,-1,3,-1,-1],"loss_changes":[1.755668E1,0E0,7.199657E-1,0E0,0E0],"parents":[2147483647,0,0,2,2],"right_children":[2,-1,4,-1,-1],"split_conditions":[2.9451165E-1,1.1852437E-1,3.34988E-1,1.05146235E-2,-2.4532413E-2],"split_indices":[18,0,168,0,0],"split_type":[0,0,0,0,0],"sum_hessian":[1.6845568E1,1.5933157E0,1.5252252E1,1.0710146E0,1.4181237E1],"tree_param":{"num_deleted":"0","num_feature":"243","num_nodes":"5","size_leaf_vector":"1"}},{"base_weights":[5.1815134E-2,1.848075E-1,-3.7928507E-1,-2.4673322E-2,3.457116E-2],"categories":[],"categories_nodes":[],"categories_segments":[],"categories_sizes":[],"default_left":[0,0,1,0,0],"id":60,"left_children":[1,-1,3,-1,-1],"loss_changes":[2.9973324E1,0E0,2.4402077E0,0E0,0E0],"parents":[2147483647,0,0,2,2],"right_children":[2,-1,4,-1,-1],"split_conditions":[9.642612E-1,1.848075E-1,2.1300541E-1,-2.4673322E-2,3.457116E-2],"split_indices":[45,0,69,0,0],"split_type":[0,0,0,0,0],"sum_hessian":[1.7185928E1,1.0167768E0,1.6169151E1,1.5098188E1,1.070964E0],"tree_param":{"num_deleted":"0","num_feature":"243","num_nodes":"5","size_leaf_vector":"1"}},{"base_weights":[3.619157E-3,1.2945005E-1,-3.1711394E-1,-2.4611516E-2,6.0819786E-2],"categories":[],"categories_nodes":[],"categories_segments":[],"categories_sizes":[],"default_left":[0,0,1,0,0],"id":61,"left_children":[1,-1,3,-1,-1],"loss_changes":[1.5717962E1,0E0,5.129933E0,0E0,0E0],"parents":[2147483647,0,0,2,2],"right_children":[2,-1,4,-1,-1],"split_conditions":[4.0737596E-1,1.2945005E-1,3.0775583E-1,-2.4611516E-2,6.0819786E-2],"split_indices":[136,0,204,0,0],"split_type":[0,0,0,0,0],"sum_hessian":[1.6965075E1,1.0918334E0,1.5873241E1,1.4855824E1,1.0174172E0],"tree_param":{"num_deleted":"0","num_feature":"243","num_nodes":"5","size_leaf_vector":"1"}},{"base_weights":[5.401656E-2,1.7843851E-1,-2.4684263E-2],"categories":[],"categories_nodes":[],"categories_segments":[],"categories_sizes":[],"default_left":[0,0,0],"id":62,"left_children":[1,-1,-1],"loss_changes":[3.6618034E1,0E0,0E0],"parents":[2147483647,0,0],"right_children":[2,-1,-1],"split_conditions":[7.6506644E-1,1.7843851E-1,-2.4684263E-2],"split_indices":[214,0,0],"split_type":[0,0,0],"sum_hessian":[1.7106764E1,1.5626848E0,1.5544079E1],"tree_param":{"num_deleted":"0","num_feature":"243","num_nodes":"3","size_leaf_vector":"1"}},{"base_weights":[1.4554343E-1,2.8008666E0,-2.4613932E-2,3.2146562E-2,1.7512976E-1],"categories":[],"categories_nodes":[],"categories_segments":[],"categories_sizes":[],"default_left":[0,1,0,0,0],"id":63,"left_children":[1,3,-1,-1,-1],"loss_changes":[3.285051E1,3.4244747E0,0E0,0E0,0E0],"parents":[2147483647,0,0,1,1],"right_children":[2,4,-1,-1,-1],"split_conditions":[4.6967444E-1,1.9000594E-1,-2.4613932E-2,3.2146562E-2,1.7512976E-1],"split_indices":[37,51,0,0,0],"split_type":[0,0,0,0,0],"sum_hessian":[1.7582464E1,2.7485697E0,1.4833895E1,1.144683E0,1.6038867E0],"tree_param":{"num_deleted":"0","num_feature":"243","num_nodes":"5","size_leaf_vector":"1"}},{"base_weights":[5.3224437E-2,2.0646155E-1,-4.3718916E-1,1.1438048E-2,-2.467808E-2],"categories":[],"categories_nodes":[],"categories_segments":[],"categories_sizes":[],"default_left":[0,0,0,0,0],"id":64,"left_children":[1,-1,3,-1,-1],"loss_changes":[3.8080475E1,0E0,7.5496197E-1,0E0,0E0],"parents":[2147483647,0,0,2,2],"right_children":[2,-1,4,-1,-1],"split_conditions":[1.0438106E0,2.0646155E-1,1.5257174E-1,1.1438048E-2,-2.467808E-2],"split_indices":[54,0,51,0,0],"split_type":[0,0,0,0,0],"sum_hessian":[1.7147327E1,1.0446838E0,1.6102644E1,1.0180451E0,1.5084599E1],"tree_param":{"num_deleted":"0","num_feature":"243","num_nodes":"5","size_leaf_vector":"1"}},{"base_weights":[-1.0033932E-1,-2.455183E-2,9.586596E-2],"categories":[],"categories_nodes":[],"categories_segments":[],"categories_sizes":[],"default_left":[1,0,0],"id":65,"left_children":[1,-1,-1],"loss_changes":[1.4871462E1,0E0,0E0],"parents":[2147483647,0,0],"right_children":[2,-1,-1],"split_conditions":[2.6026726E-1,-2.455183E-2,9.586596E-2],"split_indices":[100,0,0],"split_type":[0,0,0],"sum_hessian":[1.6671064E1,1.4600474E1,2.07059E0],"tree_param":{"num_deleted":"0","num_feature":"243","num_nodes":"3","size_leaf_vector":"1"}},{"base_weights":[1.0250048E-1,1.5522754E-1,-3.1820628E-1,5.5794038E-2,-2.4609506E-2],"categories":[],"categories_nodes":[],"categories_segments":[],"categories_sizes":[],"default_left":[0,0,0,0,0],"id":66,"left_children":[1,-1,3,-1,-1],"loss_changes":[2.4093344E1,0E0,4.77907E0,0E0,0E0],"parents":[2147483647,0,0,2,2],"right_children":[2,-1,4,-1,-1],"split_conditions":[3.6104026E-1,1.5522754E-1,4.1833347E-1,5.5794038E-2,-2.4609506E-2],"split_indices":[232,0,204,0,0],"split_type":[0,0,0,0,0],"sum_hessian":[1.7294355E1,1.3416108E0,1.59527445E1,1.1402626E0,1.4812482E1],"tree_param":{"num_deleted":"0","num_feature":"243","num_nodes":"5","size_leaf_vector":"1"}},{"base_weights":[-9.768562E-2,-3.127415E-1,8.649882E-2,6.000346E-2,-2.4556382E-2],"categories":[],"categories_nodes":[],"categories_segments":[],"categories_sizes":[],"default_left":[1,0,0,0,0],"id":67,"left_children":[1,3,-1,-1,-1],"loss_changes":[7.4501195E0,5.06224E0,0E0,0E0,0E0],"parents":[2147483647,0,0,1,1],"right_children":[2,4,-1,-1,-1],"split_conditions":[3.1232202E-1,4.771725E-1,8.649882E-2,6.000346E-2,-2.4556382E-2],"split_indices":[232,1,0,0,0],"split_type":[0,0,0,0,0],"sum_hessian":[1.6578157E1,1.5574441E1,1.0037165E0,1.0386617E0,1.4535779E1],"tree_param":{"num_deleted":"0","num_feature":"243","num_nodes":"5","size_leaf_vector":"1"}},{"base_weights":[-9.9443786E-2,7.527523E-2,-3.664906E-1,3.5950687E-2,-2.4475457E-2],"categories":[],"categories_nodes":[],"categories_segments":[],"categories_sizes":[],"default_left":[0,0,0,0,0],"id":68,"left_children":[1,-1,3,-1,-1],"loss_changes":[8.113259E0,0E0,2.4792032E0,0E0,0E0],"parents":[2147483647,0,0,2,2],"right_children":[2,-1,4,-1,-1],"split_conditions":[8.133382E-1,7.527523E-2,2.9832596E-1,3.5950687E-2,-2.4475457E-2],"split_indices":[106,0,55,0,0],"split_type":[0,0,0,0,0],"sum_hessian":[1.6642488E1,1.7125398E0,1.4929949E1,1.0265962E0,1.3903353E1],"tree_param":{"num_deleted":"0","num_feature":"243","num_nodes":"5","size_leaf_vector":"1"}},{"base_weights":[-9.903517E-2,-2.5347203E-1,6.1498262E-2,4.9984846E-2,-4.2584568E-1,-2.442964E-2,1.1201079E-2],"categories":[],"categories_nodes":[],"categories_segments":[],"categories_sizes":[],"default_left":[1,0,0,0,1,0,0],"id":69,"left_children":[1,3,-1,-1,5,-1,-1],"loss_changes":[3.930801E0,4.017171E0,0E0,0E0,7.3404E-1,0E0,0E0],"parents":[2147483647,0,0,1,1,4,4],"right_children":[2,4,-1,-1,6,-1,-1],"split_conditions":[3.15284E-1,2.2640666E-1,6.1498262E-2,4.9984846E-2,2.5966698E-1,-2.442964E-2,1.1201079E-2],"split_indices":[230,97,0,0,185,0,0],"split_type":[0,0,0,0,0,0,0],"sum_hessian":[1.6632635E1,1.5626079E1,1.0065566E0,1.3091162E0,1.4316963E1,1.3282639E1,1.0343237E0],"tree_param":{"num_deleted":"0","num_feature":"243","num_nodes":"7","size_leaf_vector":"1"}},{"base_weights":[2.7632324E-3,-1.9705571E-1,7.6457836E-2,3.6580037E-2,-3.0257812E-1,3.1350855E-2,-4.2099977E-1,-2.4177331E-2,-6.514077E-4],"categories":[],"categories_nodes":[],"categories_segments":[],"categories_sizes":[],"default_left":[1,0,0,0,0,0,1,0,0],"id":70,"left_children":[1,3,-1,-1,5,-1,7,-1,-1],"loss_changes":[5.7906837E0,1.8676918E0,0E0,0E0,2.0025845E0,0E0,3.66436E-1,0E0,0E0],"parents":[2147483647,0,0,1,1,4,4,6,6],"right_children":[2,4,-1,-1,6,-1,8,-1,-1],"split_conditions":[2.7977207E-1,3.217921E-1,7.6457836E-2,3.6580037E-2,1.7406173E-1,3.1350855E-2,1.8077607E-1,-2.4177331E-2,-6.514077E-4],"split_indices":[100,218,0,0,30,0,69,0,0],"split_type":[0,0,0,0,0,0,0,0,0],"sum_hessian":[1.6997747E1,1.5800251E1,1.197497E0,1.0067915E0,1.479346E1,1.1863075E0,1.3607152E1,1.1637709E1,1.969443E0],"tree_param":{"num_deleted":"0","num_feature":"243","num_nodes":"9","size_leaf_vector":"1"}},{"base_weights":[-4.883428E-2,1.0651245E0,-2.963359E-1,1.0841663E-2,6.720095E-2,-4.1904876E-1,3.6315825E-2,1.1402391E-2,-2.4287384E-2],"categories":[],"categories_nodes":[],"categories_segments":[],"categories_sizes":[],"default_left":[0,1,1,0,0,0,0,0,0],"id":71,"left_children":[1,3,5,-1,-1,7,-1,-1,-1],"loss_changes":[5.23911E0,5.281048E-1,2.2361488E0,0E0,0E0,7.313597E-1,0E0,0E0,0E0],"parents":[2147483647,0,0,1,1,2,2,5,5],"right_children":[2,4,6,-1,-1,8,-1,-1,-1],"split_conditions":[1.8420367E-1,1.3583942E-1,3.1033495E-1,1.0841663E-2,6.720095E-2,2.7178913E-1,3.6315825E-2,1.1402391E-2,-2.4287384E-2],"split_indices":[30,69,46,0,0,38,0,0,0],"split_type":[0,0,0,0,0,0,0,0,0],"sum_hessian":[1.6857662E1,2.4640274E0,1.4393636E1,1.0494553E0,1.4145721E0,1.3378518E1,1.0151176E0,1.0240802E0,1.2354438E1],"tree_param":{"num_deleted":"0","num_feature":"243","num_nodes":"9","size_leaf_vector":"1"}},{"base_weights":[9.961012E-2,-3.1017384E-1,1.1406131E-1,-2.4497319E-2,4.523165E-2],"categories":[],"categories_nodes":[],"categories_segments":[],"categories_sizes":[],"default_left":[1,1,0,0,0],"id":72,"left_children":[1,3,-1,-1,-1],"loss_changes":[1.7133596E1,4.013579E0,0E0,0E0,0E0],"parents":[2147483647,0,0,1,1],"right_children":[2,4,-1,-1,-1],"split_conditions":[3.1018803E-1,2.7053204E-1,1.1406131E-1,-2.4497319E-2,4.523165E-2],"split_indices":[76,188,0,0,0],"split_type":[0,0,0,0,0],"sum_hessian":[1.7373804E1,1.53486185E1,2.0251846E0,1.3889828E1,1.4587907E0],"tree_param":{"num_deleted":"0","num_feature":"243","num_nodes":"5","size_leaf_vector":"1"}},{"base_weights":[2.7481753E-3,1.8209822E-1,-4.360358E-1,-2.4648411E-2,1.0991986E-2],"categories":[],"categories_nodes":[],"categories_segments":[],"categories_sizes":[],"default_left":[0,0,1,0,0],"id":73,"left_children":[1,-1,3,-1,-1],"loss_changes":[3.0315495E1,0E0,7.4120927E-1,0E0,0E0],"parents":[2147483647,0,0,2,2],"right_children":[2,-1,4,-1,-1],"split_conditions":[8.2451314E-1,1.8209822E-1,3.1423244E-1,-2.4648411E-2,1.0991986E-2],"split_indices":[117,0,218,0,0],"split_type":[0,0,0,0,0],"sum_hessian":[1.6990313E1,1.0426426E0,1.5947671E1,1.4902464E1,1.0452068E0],"tree_param":{"num_deleted":"0","num_feature":"243","num_nodes":"5","size_leaf_vector":"1"}},{"base_weights":[-5.1125865E-2,-2.4013762E-1,4.666722E-2,-4.1455683E-1,3.1484567E-2,1.1536064E-2,-2.4197167E-2],"categories":[],"categories_nodes":[],"categories_segments":[],"categories_sizes":[],"default_left":[1,1,0,0,0,0,0],"id":74,"left_children":[1,3,-1,5,-1,-1,-1],"loss_changes":[3.5620646E0,2.6648934E0,0E0,7.295785E-1,0E0,0E0,0E0],"parents":[2147483647,0,0,1,1,3,3],"right_children":[2,4,-1,6,-1,-1,-1],"split_conditions":[2.4490018E-1,1.9753589E-1,4.666722E-2,1.3423246E-1,3.1484567E-2,1.1536064E-2,-2.4197167E-2],"split_indices":[97,30,0,69,0,0,0],"split_type":[0,0,0,0,0,0,0],"sum_hessian":[1.6938505E1,1.4844528E1,2.0939767E0,1.2801049E1,2.0434787E0,1.0170994E0,1.178395E1],"tree_param":{"num_deleted":"0","num_feature":"243","num_nodes":"7","size_leaf_vector":"1"}},{"base_weights":[5.120586E-2,1.9105158E0,-3.0724144E-1,1.0599448E-2,1.3464457E-1,3.5325978E-2,-4.244618E-1,1.1398707E-2,-2.4411568E-2],"categories":[],"categories_nodes":[],"categories_segments":[],"categories_sizes":[],"default_left":[0,0,0,0,0,0,0,0,0],"id":75,"left_children":[1,3,5,-1,-1,-1,7,-1,-1],"loss_changes":[1.2720096E1,3.5233898E0,2.2159855E0,0E0,0E0,0E0,7.3862076E-1,0E0,0E0],"parents":[2147483647,0,0,1,1,2,2,6,6],"right_children":[2,4,6,-1,-1,-1,8,-1,-1],"split_conditions":[3.0418286E-1,3.418405E-1,8.133382E-1,1.0599448E-2,1.3464457E-1,3.5325978E-2,3.2561114E-1,1.1398707E-2,-2.4411568E-2],"split_indices":[55,182,106,0,0,0,218,0,0],"split_type":[0,0,0,0,0,0,0,0,0],"sum_hessian":[1.7205175E1,2.0809672E0,1.51242075E1,1.0570599E0,1.0239073E0,1.0464947E0,1.4077713E1,1.0241821E0,1.3053531E1],"tree_param":{"num_deleted":"0","num_feature":"243","num_nodes":"9","size_leaf_vector":"1"}},{"base_weights":[-4.8163336E-2,1.8045765E-1,-2.4727097E-2],"categories":[],"categories_nodes":[],"categories_segments":[],"categories_sizes":[],"default_left":[0,0,0],"id":76,"left_children":[1,-1,-1],"loss_changes":[3.089042E1,0E0,0E0],"parents":[2147483647,0,0],"right_children":[2,-1,-1],"split_conditions":[8.1760734E-1,1.8045765E-1,-2.4727097E-2],"split_indices":[241,0,0],"split_type":[0,0,0],"sum_hessian":[1.6828295E1,1.0597805E0,1.5768516E1],"tree_param":{"num_deleted":"0","num_feature":"243","num_nodes":"3","size_leaf_vector":"1"}},{"base_weights":[-4.6554595E-2,1.6673999E-1,-2.4675464E-2],"categories":[],"categories_nodes":[],"categories_segments":[],"categories_sizes":[],"default_left":[0,0,0],"id":77,"left_children":[1,-1,-1],"loss_changes":[2.848883E1,0E0,0E0],"parents":[2147483647,0,0],"right_children":[2,-1,-1],"split_conditions":[7.353551E-1,1.6673999E-1,-2.4675464E-2],"split_indices":[231,0,0],"split_type":[0,0,0],"sum_hessian":[1.676144E1,1.202557E0,1.5558884E1],"tree_param":{"num_deleted":"0","num_feature":"243","num_nodes":"3","size_leaf_vector":"1"}},{"base_weights":[5.116102E-2,-1.3324898E-1,6.0070317E-2,-2.9960614E-1,6.04047E-2,-2.4255803E-2,4.8173863E-1,6.1273336E-2,-1.5794558E-2],"categories":[],"categories_nodes":[],"categories_segments":[],"categories_sizes":[],"default_left":[1,1,0,1,0,0,0,0,0],"id":78,"left_children":[1,3,-1,5,-1,-1,7,-1,-1],"loss_changes":[4.0223503E0,4.064441E0,0E0,2.4895148E0,0E0,0E0,2.4561546E0,0E0,0E0],"parents":[2147483647,0,0,1,1,3,3,6,6],"right_children":[2,4,-1,6,-1,-1,8,-1,-1],"split_conditions":[2.902523E-1,2.9818404E-1,6.0070317E-2,2.3254526E-1,6.04047E-2,-2.4255803E-2,5.749293E-1,6.1273336E-2,-1.5794558E-2],"split_indices":[194,55,0,162,0,0,30,0,0],"split_type":[0,0,0,0,0,0,0,0,0],"sum_hessian":[1.72082E1,1.5592526E1,1.6156741E0,1.4563017E1,1.0295093E0,1.2075202E1,2.487815E0,1.009836E0,1.4779791E0],"tree_param":{"num_deleted":"0","num_feature":"243","num_nodes":"9","size_leaf_vector":"1"}},{"base_weights":[-4.816933E-2,1.7959021E-1,-2.4717895E-2],"categories":[],"categories_nodes":[],"categories_segments":[],"categories_sizes":[],"default_left":[0,0,0],"id":79,"left_children":[1,-1,-1],"loss_changes":[3.0721493E1,0E0,0E0],"parents":[2147483647,0,0],"right_children":[2,-1,-1],"split_conditions":[7.988122E-1,1.7959021E-1,-2.4717895E-2],"split_indices":[177,0,0],"split_type":[0,0,0],"sum_hessian":[1.6822544E1,1.0671166E0,1.5755428E1],"tree_param":{"num_deleted":"0","num_feature":"243","num_nodes":"3","size_leaf_vector":"1"}},{"base_weights":[5.1831555E-2,1.6619168E-1,-3.7721214E-1,-2.46269E-2,3.3412933E-2],"categories":[],"categories_nodes":[],"categories_segments":[],"categories_sizes":[],"default_left":[0,0,1,0,0],"id":80,"left_children":[1,-1,3,-1,-1],"loss_changes":[2.6766376E1,0E0,2.3745914E0,0E0,0E0],"parents":[2147483647,0,0,2,2],"right_children":[2,-1,4,-1,-1],"split_conditions":[9.642612E-1,1.6619168E-1,2.1300541E-1,-2.46269E-2,3.3412933E-2],"split_indices":[45,0,69,0,0],"split_type":[0,0,0,0,0],"sum_hessian":[1.7173534E1,1.2086871E0,1.5964848E1,1.4855069E1,1.109778E0],"tree_param":{"num_deleted":"0","num_feature":"243","num_nodes":"5","size_leaf_vector":"1"}},{"base_weights":[4.292054E-3,1.2730329E-1,-3.162632E-1,-2.458008E-2,5.7926416E-2],"categories":[],"categories_nodes":[],"categories_segments":[],"categories_sizes":[],"default_left":[0,0,1,0,0],"id":81,"left_children":[1,-1,3,-1,-1],"loss_changes":[1.5415889E1,0E0,4.9172535E0,0E0,0E0],"parents":[2147483647,0,0,2,2],"right_children":[2,-1,4,-1,-1],"split_conditions":[3.7002623E-1,1.2730329E-1,3.0775583E-1,-2.458008E-2,5.7926416E-2],"split_indices":[136,0,204,0,0],"split_type":[0,0,0,0,0],"sum_hessian":[1.6932055E1,1.1187214E0,1.58133335E1,1.4728877E1,1.0844567E0],"tree_param":{"num_deleted":"0","num_feature":"243","num_nodes":"5","size_leaf_vector":"1"}},{"base_weights":[5.247002E-2,1.5854353E-1,-2.4638813E-2],"categories":[],"categories_nodes":[],"categories_segments":[],"categories_sizes":[],"default_left":[0,0,0],"id":82,"left_children":[1,-1,-1],"loss_changes":[3.2380604E1,0E0,0E0],"parents":[2147483647,0,0],"right_children":[2,-1,-1],"split_conditions":[7.6506644E-1,1.5854353E-1,-2.4638813E-2],"split_indices":[214,0,0],"split_type":[0,0,0],"sum_hessian":[1.712512E1,1.8319951E0,1.5293125E1],"tree_param":{"num_deleted":"0","num_feature":"243","num_nodes":"3","size_leaf_vector":"1"}},{"base_weights":[1.4166006E-1,-2.4568297E-2,2.539042E0,1.6150893E-1,1.12610785E-2],"categories":[],"categories_nodes":[],"categories_segments":[],"categories_sizes":[],"default_left":[1,0,0,0,0],"id":83,"left_children":[1,-1,3,-1,-1],"loss_changes":[2.9561886E1,0E0,5.764267E0,0E0,0E0],"parents":[2147483647,0,0,2,2],"right_children":[2,-1,4,-1,-1],"split_conditions":[2.804898E-1,-2.4568297E-2,3.7322974E-1,1.6150893E-1,1.12610785E-2],"split_indices":[37,0,51,0,0],"split_type":[0,0,0,0,0],"sum_hessian":[1.7657215E1,1.4597739E1,3.059476E0,2.0508513E0,1.0086247E0],"tree_param":{"num_deleted":"0","num_feature":"243","num_nodes":"5","size_leaf_vector":"1"}},{"base_weights":[5.3132884E-2,1.835272E-1,-4.3561372E-1,1.1697861E-2,-2.4628285E-2],"categories":[],"categories_nodes":[],"categories_segments":[],"categories_sizes":[],"default_left":[0,0,0,0,0],"id":84,"left_children":[1,-1,3,-1,-1],"loss_changes":[3.3671257E1,0E0,7.587466E-1,0E0,0E0],"parents":[2147483647,0,0,2,2],"right_children":[2,-1,4,-1,-1],"split_conditions":[1.0438106E0,1.835272E-1,2.1230291E-1,1.1697861E-2,-2.4628285E-2],"split_indices":[54,0,185,0,0],"split_type":[0,0,0,0,0],"sum_hessian":[1.7140478E1,1.2653077E0,1.5875171E1,1.0008179E0,1.4874352E1],"tree_param":{"num_deleted":"0","num_feature":"243","num_nodes":"5","size_leaf_vector":"1"}},{"base_weights":[-9.973448E-2,-2.450609E-2,8.837264E-2],"categories":[],"categories_nodes":[],"categories_segments":[],"categories_sizes":[],"default_left":[1,0,0],"id":85,"left_children":[1,-1,-1],"loss_changes":[1.3718922E1,0E0,0E0],"parents":[2147483647,0,0],"right_children":[2,-1,-1],"split_conditions":[2.6026726E-1,-2.450609E-2,8.837264E-2],"split_indices":[100,0,0],"split_type":[0,0,0],"sum_hessian":[1.6632313E1,1.4366174E1,2.266139E0],"tree_param":{"num_deleted":"0","num_feature":"243","num_nodes":"3","size_leaf_vector":"1"}},{"base_weights":[1.00624554E-1,1.4033917E-1,-3.1592634E-1,5.3108793E-2,-2.4562582E-2],"categories":[],"categories_nodes":[],"categories_segments":[],"categories_sizes":[],"default_left":[0,0,0,0,0],"id":86,"left_children":[1,-1,3,-1,-1],"loss_changes":[2.1545506E1,0E0,4.5763116E0,0E0,0E0],"parents":[2147483647,0,0,2,2],"right_children":[2,-1,4,-1,-1],"split_conditions":[3.6104026E-1,1.4033917E-1,4.1833347E-1,5.3108793E-2,-2.4562582E-2],"split_indices":[232,0,204,0,0],"split_type":[0,0,0,0,0],"sum_hessian":[1.732665E1,1.5458369E0,1.5780813E1,1.210179E0,1.4570634E1],"tree_param":{"num_deleted":"0","num_feature":"243","num_nodes":"5","size_leaf_vector":"1"}},{"base_weights":[-9.570009E-2,-3.1032425E-1,8.164521E-2,5.73817E-2,-2.4510177E-2],"categories":[],"categories_nodes":[],"categories_segments":[],"categories_sizes":[],"default_left":[1,0,0,0,0],"id":87,"left_children":[1,3,-1,-1,-1],"loss_changes":[6.997314E0,4.864333E0,0E0,0E0,0E0],"parents":[2147483647,0,0,1,1],"right_children":[2,4,-1,-1,-1],"split_conditions":[3.1232202E-1,4.771725E-1,8.164521E-2,5.73817E-2,-2.4510177E-2],"split_indices":[232,1,0,0,0],"split_type":[0,0,0,0,0],"sum_hessian":[1.6494822E1,1.5402873E1,1.0919495E0,1.1007823E0,1.4302091E1],"tree_param":{"num_deleted":"0","num_feature":"243","num_nodes":"5","size_leaf_vector":"1"}},{"base_weights":[-9.8383695E-2,7.0397645E-2,-3.6436784E-1,-2.4428986E-2,3.4769237E-2],"categories":[],"categories_nodes":[],"categories_segments":[],"categories_sizes":[],"default_left":[0,0,1,0,0],"id":88,"left_children":[1,-1,3,-1,-1],"loss_changes":[7.5613637E0,0E0,2.4124677E0,0E0,0E0],"parents":[2147483647,0,0,2,2],"right_children":[2,-1,4,-1,-1],"split_conditions":[8.133382E-1,7.0397645E-2,2.9103857E-1,-2.4428986E-2,3.4769237E-2],"split_indices":[106,0,182,0,0],"split_type":[0,0,0,0,0],"sum_hessian":[1.659178E1,1.8457052E0,1.4746075E1,1.3681461E1,1.0646139E0],"tree_param":{"num_deleted":"0","num_feature":"243","num_nodes":"5","size_leaf_vector":"1"}},{"base_weights":[-9.756846E-2,1.09514706E-1,-3.727085E-1,-2.456771E-2,3.6581498E-2],"categories":[],"categories_nodes":[],"categories_segments":[],"categories_sizes":[],"default_left":[0,0,1,0,0],"id":89,"left_children":[1,-1,3,-1,-1],"loss_changes":[1.1877978E1,0E0,2.5267391E0,0E0,0E0],"parents":[2147483647,0,0,2,2],"right_children":[2,-1,4,-1,-1],"split_conditions":[8.0352914E-1,1.09514706E-1,3.0080995E-1,-2.456771E-2,3.6581498E-2],"split_indices":[239,0,230,0,0],"split_type":[0,0,0,0,0],"sum_hessian":[1.6572584E1,1.0318475E0,1.5540737E1,1.45343E1,1.0064374E0],"tree_param":{"num_deleted":"0","num_feature":"243","num_nodes":"5","size_leaf_vector":"1"}},{"base_weights":[2.425617E-3,-1.9530106E-1,7.228597E-2,3.660789E-2,-3.0128473E-1,1.1646782E-2,-3.5357744E-1,1.1569272E-2,-4.1368878E-1,-2.4010388E-2,1.2998334E-4],"categories":[],"categories_nodes":[],"categories_segments":[],"categories_sizes":[],"default_left":[1,0,0,0,0,0,0,0,1,0,0],"id":90,"left_children":[1,3,-1,-1,5,-1,7,-1,9,-1,-1],"loss_changes":[5.4198856E0,1.8635418E0,0E0,0E0,5.211984E-1,0E0,6.128044E-1,0E0,3.8044238E-1,0E0,0E0],"parents":[2147483647,0,0,1,1,4,4,6,6,8,8],"right_children":[2,4,-1,-1,6,-1,8,-1,10,-1,-1],"split_conditions":[2.7977207E-1,2.4134733E-1,7.228597E-2,3.660789E-2,1.7406173E-1,1.1646782E-2,3.2561114E-1,1.1569272E-2,1.8077607E-1,-2.4010388E-2,1.2998334E-4],"split_indices":[100,35,0,0,30,0,218,0,69,0,0],"split_type":[0,0,0,0,0,0,0,0,0,0,0],"sum_hessian":[1.7002583E1,1.57144375E1,1.2881444E0,1.0056677E0,1.470877E1,1.0034193E0,1.3705351E1,1.0116242E0,1.2693727E1,1.0812452E1,1.8812739E0],"tree_param":{"num_deleted":"0","num_feature":"243","num_nodes":"11","size_leaf_vector":"1"}},{"base_weights":[-4.8395876E-2,1.0114828E0,-2.9404223E-1,1.0540881E-2,6.3336775E-2,-4.1735014E-1,3.4969863E-2,1.1435734E-2,-2.4242228E-2],"categories":[],"categories_nodes":[],"categories_segments":[],"categories_sizes":[],"default_left":[0,1,1,0,0,0,0,0,0],"id":91,"left_children":[1,3,5,-1,-1,7,-1,-1,-1],"loss_changes":[4.9411354E0,4.6485615E-1,2.1605935E0,0E0,0E0,7.2994924E-1,0E0,0E0,0E0],"parents":[2147483647,0,0,1,1,2,2,5,5],"right_children":[2,4,6,-1,-1,8,-1,-1,-1],"split_conditions":[1.8420367E-1,1.3583942E-1,3.1033495E-1,1.0540881E-2,6.3336775E-2,4.1787255E-1,3.4969863E-2,1.1435734E-2,-2.4242228E-2],"split_indices":[30,69,46,0,0,182,0,0,0],"split_type":[0,0,0,0,0,0,0,0,0],"sum_hessian":[1.6836071E1,2.5812473E0,1.4254825E1,1.0653672E0,1.5158801E0,1.31967125E1,1.0581117E0,1.0223168E0,1.2174396E1],"tree_param":{"num_deleted":"0","num_feature":"243","num_nodes":"9","size_leaf_vector":"1"}},{"base_weights":[9.615013E-2,-3.0796435E-1,1.0380002E-1,-2.4449548E-2,4.3136906E-2],"categories":[],"categories_nodes":[],"categories_segments":[],"categories_sizes":[],"default_left":[1,1,0,0,0],"id":92,"left_children":[1,3,-1,-1,-1],"loss_changes":[1.5403032E1,3.8541515E0,0E0,0E0,0E0],"parents":[2147483647,0,0,1,1],"right_children":[2,4,-1,-1,-1],"split_conditions":[3.1018803E-1,2.7053204E-1,1.0380002E-1,-2.4449548E-2,4.3136906E-2],"split_indices":[76,188,0,0,0],"split_type":[0,0,0,0,0],"sum_hessian":[1.7452635E1,1.519548E1,2.2571545E0,1.3664793E1,1.5306877E0],"tree_param":{"num_deleted":"0","num_feature":"243","num_nodes":"5","size_leaf_vector":"1"}},{"base_weights":[3.3356221E-3,1.6389868E-1,-4.3446252E-1,-2.4601812E-2,1.0688064E-2],"categories":[],"categories_nodes":[],"categories_segments":[],"categories_sizes":[],"default_left":[0,0,1,0,0],"id":93,"left_children":[1,-1,3,-1,-1],"loss_changes":[2.7169474E1,0E0,7.2930384E-1,0E0,0E0],"parents":[2147483647,0,0,2,2],"right_children":[2,-1,4,-1,-1],"split_conditions":[8.2451314E-1,1.6389868E-1,3.1423244E-1,-2.4601812E-2,1.0688064E-2],"split_indices":[117,0,218,0,0],"split_type":[0,0,0,0,0],"sum_hessian":[1.6958126E1,1.2347853E0,1.5723342E1,1.4662042E1,1.0613005E0],"tree_param":{"num_deleted":"0","num_feature":"243","num_nodes":"5","size_leaf_vector":"1"}},{"base_weights":[-5.16731E-2,7.262326E-1,-2.8357896E-1,6.575349E-2,-1.5385351E-2,-2.4132082E-2,5.989715E-1,9.629895E-3,3.643323E-2],"categories":[],"categories_nodes":[],"categories_segments":[],"categories_sizes":[],"default_left":[0,0,1,0,0,0,0,0,0],"id":94,"left_children":[1,3,5,-1,-1,-1,7,-1,-1],"loss_changes":[3.4444644E0,3.085605E0,2.8449745E0,0E0,0E0,0E0,2.4293303E-2,0E0,0E0],"parents":[2147483647,0,0,1,1,2,2,6,6],"right_children":[2,4,6,-1,-1,-1,8,-1,-1],"split_conditions":[2.6788792E-1,1.8077607E-1,1.9753589E-1,6.575349E-2,-1.5385351E-2,-2.4132082E-2,2.1398243E-1,9.629895E-3,3.643323E-2],"split_indices":[97,69,30,0,0,0,30,0,0],"split_type":[0,0,0,0,0,0,0,0,0],"sum_hessian":[1.6951797E1,3.4035008E0,1.3548297E1,1.9952738E0,1.4082268E0,1.1424569E1,2.1237273E0,1.1150175E0,1.0087098E0],"tree_param":{"num_deleted":"0","num_feature":"243","num_nodes":"9","size_leaf_vector":"1"}},{"base_weights":[5.071229E-2,-2.5575688E-1,1.0436644E-1,-2.4551151E-2,6.121851E-2],"categories":[],"categories_nodes":[],"categories_segments":[],"categories_sizes":[],"default_left":[1,1,0,0,0],"id":95,"left_children":[1,3,-1,-1,-1],"loss_changes":[1.1900403E1,6.4234476E0,0E0,0E0,0E0],"parents":[2147483647,0,0,1,1],"right_children":[2,4,-1,-1,-1],"split_conditions":[2.7983147E-1,2.7641055E-1,1.0436644E-1,-2.4551151E-2,6.121851E-2],"split_indices":[106,112,0,0,0],"split_type":[0,0,0,0,0],"sum_hessian":[1.7210958E1,1.5719861E1,1.4910976E0,1.4140488E1,1.5793738E0],"tree_param":{"num_deleted":"0","num_feature":"243","num_nodes":"5","size_leaf_vector":"1"}},{"base_weights":[-4.661964E-2,1.6257873E-1,-2.4680955E-2],"categories":[],"categories_nodes":[],"categories_segments":[],"categories_sizes":[],"default_left":[0,0,0],"id":96,"left_children":[1,-1,-1],"loss_changes":[2.7793823E1,0E0,0E0],"parents":[2147483647,0,0],"right_children":[2,-1,-1],"split_conditions":[8.1760734E-1,1.6257873E-1,-2.4680955E-2],"split_indices":[241,0,0],"split_type":[0,0,0],"sum_hessian":[1.6763645E1,1.2519419E0,1.5511703E1],"tree_param":{"num_deleted":"0","num_feature":"243","num_nodes":"3","size_leaf_vector":"1"}},{"base_weights":[-4.5446493E-2,1.5100478E-1,-2.463025E-2],"categories":[],"categories_nodes":[],"categories_segments":[],"categories_sizes":[],"default_left":[0,0,0],"id":97,"left_children":[1,-1,-1],"loss_changes":[2.5752413E1,0E0,0E0],"parents":[2147483647,0,0],"right_children":[2,-1,-1],"split_conditions":[7.353551E-1,1.5100478E-1,-2.463025E-2],"split_indices":[231,0,0],"split_type":[0,0,0],"sum_hessian":[1.6701342E1,1.3935748E0,1.5307768E1],"tree_param":{"num_deleted":"0","num_feature":"243","num_nodes":"3","size_leaf_vector":"1"}},{"base_weights":[4.9894273E-2,-1.3141578E-1,5.6518096E-2,5.780356E-2,-2.9761162E-1,-2.4204867E-2,4.5260188E-1,5.8417853E-2,-1.596432E-2],"categories":[],"categories_nodes":[],"categories_segments":[],"categories_sizes":[],"default_left":[1,0,0,0,1,0,0,0,0],"id":98,"left_children":[1,3,-1,-1,5,-1,7,-1,-1],"loss_changes":[3.7216682E0,3.877746E0,0E0,0E0,2.3766618E0,0E0,2.354846E0,0E0,0E0],"parents":[2147483647,0,0,1,1,4,4,6,6],"right_children":[2,4,-1,-1,6,-1,8,-1,-1],"split_conditions":[2.902523E-1,8.8768417E-1,5.6518096E-2,5.780356E-2,2.3254526E-1,-2.4204867E-2,5.749293E-1,5.8417853E-2,-1.596432E-2],"split_indices":[194,120,0,0,162,0,30,0,0],"split_type":[0,0,0,0,0,0,0,0,0],"sum_hessian":[1.723955E1,1.55144825E1,1.7250677E0,1.092788E0,1.4421695E1,1.1834606E1,2.5870886E0,1.0758456E0,1.511243E0],"tree_param":{"num_deleted":"0","num_feature":"243","num_nodes":"9","size_leaf_vector":"1"}},{"base_weights":[-4.67834E-2,1.616616E-1,-2.4671815E-2],"categories":[],"categories_nodes":[],"categories_segments":[],"categories_sizes":[],"default_left":[0,0,0],"id":99,"left_children":[1,-1,-1],"loss_changes":[2.761096E1,0E0,0E0],"parents":[2147483647,0,0],"right_children":[2,-1,-1],"split_conditions":[7.988122E-1,1.616616E-1,-2.4671815E-2],"split_indices":[177,0,0],"split_type":[0,0,0],"sum_hessian":[1.6757723E1,1.2607259E0,1.5496997E1],"tree_param":{"num_deleted":"0","num_feature":"243","num_nodes":"3","size_leaf_vector":"1"}},{"base_weights":[5.1629595E-2,1.4999056E-1,-3.7503144E-1,-2.4578117E-2,3.2260846E-2],"categories":[],"categories_nodes":[],"categories_segments":[],"categories_sizes":[],"default_left":[0,0,1,0,0],"id":100,"left_children":[1,-1,3,-1,-1],"loss_changes":[2.39677E1,0E0,2.3089116E0,0E0,0E0],"parents":[2147483647,0,0,2,2],"right_children":[2,-1,4,-1,-1],"split_conditions":[9.642612E-1,1.4999056E-1,2.1300541E-1,-2.4578117E-2,3.2260846E-2],"split_indices":[45,0,69,0,0],"split_type":[0,0,0,0,0],"sum_hessian":[1.7159746E1,1.406953E0,1.5752793E1,1.4603053E1,1.1497403E0],"tree_param":{"num_deleted":"0","num_feature":"243","num_nodes":"5","size_leaf_vector":"1"}},{"base_weights":[5.156146E-3,1.1742338E-1,-3.137822E-1,-2.4550956E-2,6.0525227E-2],"categories":[],"categories_nodes":[],"categories_segments":[],"categories_sizes":[],"default_left":[0,0,1,0,0],"id":101,"left_children":[1,-1,3,-1,-1],"loss_changes":[1.4105696E1,0E0,5.0863056E0,0E0,0E0],"parents":[2147483647,0,0,2,2],"right_children":[2,-1,4,-1,-1],"split_conditions":[3.7002623E-1,1.1742338E-1,3.1458068E-1,-2.4550956E-2,6.0525227E-2],"split_indices":[136,0,204,0,0],"split_type":[0,0,0,0,0],"sum_hessian":[1.6887733E1,1.2608197E0,1.5626914E1,1.4606419E1,1.020496E0],"tree_param":{"num_deleted":"0","num_feature":"243","num_nodes":"5","size_leaf_vector":"1"}},{"base_weights":[5.0790355E-2,1.4205627E-1,-2.4591548E-2],"categories":[],"categories_nodes":[],"categories_segments":[],"categories_sizes":[],"default_left":[0,0,0],"id":102,"left_children":[1,-1,-1],"loss_changes":[2.8855946E1,0E0,0E0],"parents":[2147483647,0,0],"right_children":[2,-1,-1],"split_conditions":[7.6506644E-1,1.4205627E-1,-2.4591548E-2],"split_indices":[214,0,0],"split_type":[0,0,0],"sum_hessian":[1.7135315E1,2.1000829E0,1.5035233E1],"tree_param":{"num_deleted":"0","num_feature":"243","num_nodes":"3","size_leaf_vector":"1"}},{"base_weights":[1.3705611E-1,2.3037968E0,-2.4520723E-2,1.43487E-1,1.1033372E-2],"categories":[],"categories_nodes":[],"categories_segments":[],"categories_sizes":[],"default_left":[0,0,0,0,0],"id":103,"left_children":[1,3,-1,-1,-1],"loss_changes":[2.6604767E1,4.5342827E0,0E0,0E0,0E0],"parents":[2147483647,0,0,1,1],"right_children":[2,4,-1,-1,-1],"split_conditions":[4.6967444E-1,3.7322974E-1,-2.4520723E-2,1.43487E-1,1.1033372E-2],"split_indices":[37,51,0,0,0],"split_type":[0,0,0,0,0],"sum_hessian":[1.7737558E1,3.3832338E0,1.4354325E1,2.3635075E0,1.0197263E0],"tree_param":{"num_deleted":"0","num_feature":"243","num_nodes":"5","size_leaf_vector":"1"}},{"base_weights":[5.2754402E-2,1.6402242E-1,-4.3397364E-1,1.1609135E-2,-2.4600916E-2],"categories":[],"categories_nodes":[],"categories_segments":[],"categories_sizes":[],"default_left":[0,0,0,0,0],"id":104,"left_children":[1,-1,3,-1,-1],"loss_changes":[2.9911242E1,0E0,7.576673E-1,0E0,0E0],"parents":[2147483647,0,0,2,2],"right_children":[2,-1,4,-1,-1],"split_conditions":[1.0438106E0,1.6402242E-1,3.6135313E-1,1.1609135E-2,-2.4600916E-2],"split_indices":[54,0,170,0,0],"split_type":[0,0,0,0,0],"sum_hessian":[1.713332E1,1.4929771E0,1.5640343E1,1.0131172E0,1.4627225E1],"tree_param":{"num_deleted":"0","num_feature":"243","num_nodes":"5","size_leaf_vector":"1"}},{"base_weights":[-9.8998815E-2,-2.4458466E-2,8.1794575E-2],"categories":[],"categories_nodes":[],"categories_segments":[],"categories_sizes":[],"default_left":[1,0,0],"id":105,"left_children":[1,-1,-1],"loss_changes":[1.2702829E1,0E0,0E0],"parents":[2147483647,0,0],"right_children":[2,-1,-1],"split_conditions":[2.6026726E-1,-2.4458466E-2,8.1794575E-2],"split_indices":[100,0,0],"split_type":[0,0,0],"sum_hessian":[1.658391E1,1.4125235E1,2.458674E0],"tree_param":{"num_deleted":"0","num_feature":"243","num_nodes":"3","size_leaf_vector":"1"}},{"base_weights":[9.864736E-2,1.274552E-1,-3.135381E-1,5.0580688E-2,-2.4513664E-2],"categories":[],"categories_nodes":[],"categories_segments":[],"categories_sizes":[],"default_left":[0,0,0,0,0],"id":106,"left_children":[1,-1,3,-1,-1],"loss_changes":[1.9337364E1,0E0,4.3840656E0,0E0,0E0],"parents":[2147483647,0,0,2,2],"right_children":[2,-1,4,-1,-1],"split_conditions":[3.6104026E-1,1.274552E-1,4.1833347E-1,5.0580688E-2,-2.4513664E-2],"split_indices":[232,0,204,0,0],"split_type":[0,0,0,0,0],"sum_hessian":[1.7353804E1,1.7522508E0,1.5601552E1,1.2800326E0,1.432152E1],"tree_param":{"num_deleted":"0","num_feature":"243","num_nodes":"5","size_leaf_vector":"1"}},{"base_weights":[-9.362167E-2,-3.095424E-1,8.345149E-2,5.4864388E-2,-2.4481175E-2],"categories":[],"categories_nodes":[],"categories_segments":[],"categories_sizes":[],"default_left":[1,0,0,0,0],"id":107,"left_children":[1,3,-1,-1,-1],"loss_changes":[7.14112E0,4.6793666E0,0E0,0E0,0E0],"parents":[2147483647,0,0,1,1],"right_children":[2,4,-1,-1,-1],"split_conditions":[3.1288347E-1,4.771725E-1,8.345149E-2,5.4864388E-2,-2.4481175E-2],"split_indices":[232,1,0,0,0],"split_type":[0,0,0,0,0],"sum_hessian":[1.6405695E1,1.53497715E1,1.0559233E0,1.1638943E0,1.4185877E1],"tree_param":{"num_deleted":"0","num_feature":"243","num_nodes":"5","size_leaf_vector":"1"}},{"base_weights":[-9.7157836E-2,6.606652E-2,-3.621606E-1,3.641816E-2,-2.439338E-2],"categories":[],"categories_nodes":[],"categories_segments":[],"categories_sizes":[],"default_left":[0,0,0,0,0],"id":108,"left_children":[1,-1,3,-1,-1],"loss_changes":[7.0689087E0,0E0,2.4880273E0,0E0,0E0],"parents":[2147483647,0,0,2,2],"right_children":[2,-1,4,-1,-1],"split_conditions":[8.133382E-1,6.606652E-2,3.4029678E-1,3.641816E-2,-2.439338E-2],"split_indices":[106,0,182,0,0],"split_type":[0,0,0,0,0],"sum_hessian":[1.6532104E1,1.9748996E0,1.4557204E1,1.0090902E0,1.3548114E1],"tree_param":{"num_deleted":"0","num_feature":"243","num_nodes":"5","size_leaf_vector":"1"}},{"base_weights":[-9.5267676E-2,-3.7177432E-1,1.1059053E-1,-2.4539126E-2,3.5408717E-2],"categories":[],"categories_nodes":[],"categories_segments":[],"categories_sizes":[],"default_left":[1,1,0,0,0],"id":109,"left_children":[1,3,-1,-1,-1],"loss_changes":[1.197168E1,2.4634573E0,0E0,0E0,0E0],"parents":[2147483647,0,0,1,1],"right_children":[2,4,-1,-1,-1],"split_conditions":[3.350983E-1,3.0080995E-1,1.1059053E-1,-2.4539126E-2,3.5408717E-2],"split_indices":[239,230,0,0,0],"split_type":[0,0,0,0,0],"sum_hessian":[1.647765E1,1.5463216E1,1.0144335E0,1.4419739E1,1.0434766E0],"tree_param":{"num_deleted":"0","num_feature":"243","num_nodes":"5","size_leaf_vector":"1"}},{"base_weights":[2.1547927E-3,-1.9347666E-1,6.844772E-2,3.5281844E-2,-2.9923606E-1,1.1268902E-2,-3.5157233E-1,1.1185962E-2,-4.1198102E-1,-2.3954857E-2,-2.3227606E-6],"categories":[],"categories_nodes":[],"categories_segments":[],"categories_sizes":[],"default_left":[1,0,0,0,0,0,0,0,1,0,0],"id":110,"left_children":[1,3,-1,-1,5,-1,7,-1,9,-1,-1],"loss_changes":[5.078876E0,1.7920861E0,0E0,0E0,5.06955E-1,0E0,5.980145E-1,0E0,3.7389255E-1,0E0,0E0],"parents":[2147483647,0,0,1,1,4,4,6,6,8,8],"right_children":[2,4,-1,-1,6,-1,8,-1,10,-1,-1],"split_conditions":[2.7977207E-1,2.4134733E-1,6.844772E-2,3.5281844E-2,1.7406173E-1,1.1268902E-2,3.2561114E-1,1.1185962E-2,1.8077607E-1,-2.3954857E-2,-2.3227606E-6],"split_indices":[100,35,0,0,30,0,218,0,69,0,0],"split_type":[0,0,0,0,0,0,0,0,0,0,0],"sum_hessian":[1.7003792E1,1.5625711E1,1.3780793E0,1.0475836E0,1.4578128E1,1.0224847E0,1.3555643E1,1.0312536E0,1.252439E1,1.0629495E1,1.8948956E0],"tree_param":{"num_deleted":"0","num_feature":"243","num_nodes":"11","size_leaf_vector":"1"}},{"base_weights":[-4.7763646E-2,9.6127135E-1,-2.915867E-1,1.0224556E-2,5.981219E-2,-4.1621506E-1,3.507166E-2,-2.4219556E-2,1.1496621E-2],"categories":[],"categories_nodes":[],"categories_segments":[],"categories_sizes":[],"default_left":[0,1,1,0,0,1,0,0,0],"id":111,"left_children":[1,3,5,-1,-1,7,-1,-1,-1],"loss_changes":[4.660948E0,4.1295862E-1,2.161652E0,0E0,0E0,7.3033357E-1,0E0,0E0,0E0],"parents":[2147483647,0,0,1,1,2,2,5,5],"right_children":[2,4,6,-1,-1,8,-1,-1,-1],"split_conditions":[1.8420367E-1,1.3583942E-1,3.02701E-1,1.0224556E-2,5.981219E-2,2.877147E-1,3.507166E-2,-2.4219556E-2,1.1496621E-2],"split_indices":[30,69,162,0,0,55,0,0,0],"split_type":[0,0,0,0,0,0,0,0,0],"sum_hessian":[1.6805656E1,2.6979578E0,1.4107698E1,1.0823355E0,1.6156222E0,1.3050645E1,1.057054E0,1.2031519E1,1.0191255E0],"tree_param":{"num_deleted":"0","num_feature":"243","num_nodes":"9","size_leaf_vector":"1"}},{"base_weights":[9.285388E-2,1.2899078E-1,-2.1074848E-1,-3.6741978E-1,4.1163664E-2,-2.4399731E-2,2.5617808E-2],"categories":[],"categories_nodes":[],"categories_segments":[],"categories_sizes":[],"default_left":[0,0,1,1,0,0,0],"id":112,"left_children":[1,-1,3,5,-1,-1,-1],"loss_changes":[1.4528383E1,0E0,3.1263366E0,1.9291339E0,0E0,0E0,0E0],"parents":[2147483647,0,0,2,2,3,3],"right_children":[2,-1,4,6,-1,-1,-1],"split_conditions":[9.700865E-1,1.2899078E-1,2.7053204E-1,3.1018803E-1,4.1163664E-2,-2.4399731E-2,2.5617808E-2],"split_indices":[12,0,188,76,0,0,0],"split_type":[0,0,0,0,0,0,0],"sum_hessian":[1.7521606E1,1.0905994E0,1.6431005E1,1.4828859E1,1.6021469E0,1.3433143E1,1.3957165E0],"tree_param":{"num_deleted":"0","num_feature":"243","num_nodes":"7","size_leaf_vector":"1"}},{"base_weights":[3.7138902E-3,1.4803702E-1,-4.3280706E-1,-2.4552906E-2,1.0375985E-2],"categories":[],"categories_nodes":[],"categories_segments":[],"categories_sizes":[],"default_left":[0,0,1,0,0],"id":113,"left_children":[1,-1,3,-1,-1],"loss_changes":[2.4417967E1,0E0,7.170124E-1,0E0,0E0],"parents":[2147483647,0,0,2,2],"right_children":[2,-1,4,-1,-1],"split_conditions":[8.2451314E-1,1.4803702E-1,3.1423244E-1,-2.4552906E-2,1.0375985E-2],"split_indices":[117,0,218,0,0],"split_type":[0,0,0,0,0],"sum_hessian":[1.692413E1,1.4331663E0,1.5490964E1,1.4412921E1,1.0780425E0],"tree_param":{"num_deleted":"0","num_feature":"243","num_nodes":"5","size_leaf_vector":"1"}},{"base_weights":[-5.1707275E-2,-1.9972154E-1,6.0338456E-2,5.1668275E-2,-3.649596E-1,-2.443154E-2,2.29888E-2],"categories":[],"categories_nodes":[],"categories_segments":[],"categories_sizes":[],"default_left":[1,0,0,0,1,0,0],"id":114,"left_children":[1,3,-1,-1,5,-1,-1],"loss_changes":[3.5837173E0,3.82356E0,0E0,0E0,1.8214025E0,0E0,0E0],"parents":[2147483647,0,0,1,1,4,4],"right_children":[2,4,-1,-1,6,-1,-1],"split_conditions":[2.9451165E-1,3.664319E-1,6.0338456E-2,5.1668275E-2,2.7480584E-1,-2.443154E-2,2.29888E-2],"split_indices":[18,168,0,0,38,0,0],"split_type":[0,0,0,0,0,0,0],"sum_hessian":[1.6945213E1,1.5914721E1,1.0304929E0,1.2597858E0,1.4654935E1,1.3098336E1,1.5565985E0],"tree_param":{"num_deleted":"0","num_feature":"243","num_nodes":"7","size_leaf_vector":"1"}},{"base_weights":[4.980441E-2,1.7339896E0,-3.0416903E-1,1.0319185E-2,1.1858964E-1,3.478581E-2,-4.2242038E-1,1.1312808E-2,-2.4352476E-2],"categories":[],"categories_nodes":[],"categories_segments":[],"categories_sizes":[],"default_left":[0,0,0,0,0,0,0,0,0],"id":115,"left_children":[1,3,5,-1,-1,-1,7,-1,-1],"loss_changes":[1.13935995E1,2.7401342E0,2.1753144E0,0E0,0E0,0E0,7.328284E-1,0E0,0E0],"parents":[2147483647,0,0,1,1,2,2,6,6],"right_children":[2,4,6,-1,-1,-1,8,-1,-1],"split_conditions":[3.0418286E-1,3.418405E-1,4.066641E-1,1.0319185E-2,1.1858964E-1,3.478581E-2,2.4428473E-1,1.1312808E-2,-2.4352476E-2],"split_indices":[55,182,106,0,0,0,35,0,0],"split_type":[0,0,0,0,0,0,0,0,0],"sum_hessian":[1.722704E1,2.3147845E0,1.4912255E1,1.0716515E0,1.2431331E0,1.0606304E0,1.38516245E1,1.0284388E0,1.2823186E1],"tree_param":{"num_deleted":"0","num_feature":"243","num_nodes":"9","size_leaf_vector":"1"}},{"base_weights":[-4.530862E-2,1.4673974E-1,-2.4632527E-2],"categories":[],"categories_nodes":[],"categories_segments":[],"categories_sizes":[],"default_left":[0,0,0],"id":116,"left_children":[1,-1,-1],"loss_changes":[2.504091E1,0E0,0E0],"parents":[2147483647,0,0],"right_children":[2,-1,-1],"split_conditions":[8.1760734E-1,1.4673974E-1,-2.4632527E-2],"split_indices":[241,0,0],"split_type":[0,0,0],"sum_hessian":[1.6699074E1,1.4537776E0,1.5245297E1],"tree_param":{"num_deleted":"0","num_feature":"243","num_nodes":"3","size_leaf_vector":"1"}},{"base_weights":[-4.4482607E-2,1.3725942E-1,-2.4582934E-2],"categories":[],"categories_nodes":[],"categories_segments":[],"categories_sizes":[],"default_left":[0,0,0],"id":117,"left_children":[1,-1,-1],"loss_changes":[2.335099E1,0E0,0E0],"parents":[2147483647,0,0],"right_children":[2,-1,-1],"split_conditions":[7.353551E-1,1.3725942E-1,-2.4582934E-2],"split_indices":[231,0,0],"split_type":[0,0,0],"sum_hessian":[1.6636675E1,1.5884316E0,1.5048243E1],"tree_param":{"num_deleted":"0","num_feature":"243","num_nodes":"3","size_leaf_vector":"1"}},{"base_weights":[4.8778567E-2,5.343878E-2,-1.294284E-1,-2.9726613E-1,6.128628E-2,-2.4248468E-2,5.6721556E-1,3.6229283E-2,8.257608E-3],"categories":[],"categories_nodes":[],"categories_segments":[],"categories_sizes":[],"default_left":[0,0,1,1,0,0,0,0,0],"id":118,"left_children":[1,-1,3,5,-1,-1,7,-1,-1],"loss_changes":[3.4583383E0,0E0,4.103649E0,2.7793913E0,0E0,0E0,8.370006E-2,0E0,0E0],"parents":[2147483647,0,0,2,2,3,3,6,6],"right_children":[2,-1,4,6,-1,-1,8,-1,-1],"split_conditions":[3.1024662E-1,5.343878E-2,2.996793E-1,2.3254526E-1,6.128628E-2,-2.4248468E-2,2.7808788E-1,3.6229283E-2,8.257608E-3],"split_indices":[194,0,55,162,0,0,162,0,0],"split_type":[0,0,0,0,0,0,0,0,0],"sum_hessian":[1.726483E1,1.8245176E0,1.5440311E1,1.443336E1,1.0069513E0,1.2219229E1,2.2141314E0,1.0147748E0,1.1993567E0],"tree_param":{"num_deleted":"0","num_feature":"243","num_nodes":"9","size_leaf_vector":"1"}},{"base_weights":[-4.5588702E-2,1.4615518E-1,-2.4623869E-2],"categories":[],"categories_nodes":[],"categories_segments":[],"categories_sizes":[],"default_left":[0,0,0],"id":119,"left_children":[1,-1,-1],"loss_changes":[2.4908897E1,0E0,0E0],"parents":[2147483647,0,0],"right_children":[2,-1,-1],"split_conditions":[7.988122E-1,1.4615518E-1,-2.4623869E-2],"split_indices":[177,0,0],"split_type":[0,0,0],"sum_hessian":[1.6690342E1,1.458759E0,1.5231583E1],"tree_param":{"num_deleted":"0","num_feature":"243","num_nodes":"3","size_leaf_vector":"1"}},{"base_weights":[5.1047176E-2,1.3610779E-1,-3.7284133E-1,-2.4528995E-2,3.1138724E-2],"categories":[],"categories_nodes":[],"categories_segments":[],"categories_sizes":[],"default_left":[0,0,1,0,0],"id":120,"left_children":[1,-1,3,-1,-1],"loss_changes":[2.1563845E1,0E0,2.2446845E0,0E0,0E0],"parents":[2147483647,0,0,2,2],"right_children":[2,-1,4,-1,-1],"split_conditions":[9.642612E-1,1.3610779E-1,2.1300541E-1,-2.4528995E-2,3.1138724E-2],"split_indices":[45,0,69,0,0],"split_type":[0,0,0,0,0],"sum_hessian":[1.7148708E1,1.6060996E0,1.5542608E1,1.4352575E1,1.1900334E0],"tree_param":{"num_deleted":"0","num_feature":"243","num_nodes":"5","size_leaf_vector":"1"}},{"base_weights":[5.9793848E-3,1.0868593E-1,-3.1123313E-1,-2.450174E-2,5.776888E-2],"categories":[],"categories_nodes":[],"categories_segments":[],"categories_sizes":[],"default_left":[0,0,1,0,0],"id":121,"left_children":[1,-1,3,-1,-1],"loss_changes":[1.2943762E1,0E0,4.8765454E0,0E0,0E0],"parents":[2147483647,0,0,2,2],"right_children":[2,-1,4,-1,-1],"split_conditions":[3.7002623E-1,1.0868593E-1,3.1458068E-1,-2.450174E-2,5.776888E-2],"split_indices":[136,0,204,0,0],"split_type":[0,0,0,0,0],"sum_hessian":[1.6839764E1,1.4025533E0,1.543721E1,1.4353213E1,1.0839976E0],"tree_param":{"num_deleted":"0","num_feature":"243","num_nodes":"5","size_leaf_vector":"1"}},{"base_weights":[4.8618432E-2,1.2800108E-1,-2.4543544E-2],"categories":[],"categories_nodes":[],"categories_segments":[],"categories_sizes":[],"default_left":[0,0,0],"id":122,"left_children":[1,-1,-1],"loss_changes":[2.584217E1,0E0,0E0],"parents":[2147483647,0,0],"right_children":[2,-1,-1],"split_conditions":[7.6506644E-1,1.2800108E-1,-2.4543544E-2],"split_indices":[214,0,0],"split_type":[0,0,0],"sum_hessian":[1.7145977E1,2.3696475E0,1.4776329E1],"tree_param":{"num_deleted":"0","num_feature":"243","num_nodes":"3","size_leaf_vector":"1"}},{"base_weights":[1.3225032E-1,2.1037946E0,-2.4472764E-2,1.287819E-1,1.08031435E-2],"categories":[],"categories_nodes":[],"categories_segments":[],"categories_sizes":[],"default_left":[0,0,0,0,0],"id":123,"left_children":[1,3,-1,-1,-1],"loss_changes":[2.408643E1,3.62846E0,0E0,0E0,0E0],"parents":[2147483647,0,0,1,1],"right_children":[2,4,-1,-1,-1],"split_conditions":[4.6967444E-1,3.7322974E-1,-2.4472764E-2,1.287819E-1,1.08031435E-2],"split_indices":[37,51,0,0,0],"split_type":[0,0,0,0,0],"sum_hessian":[1.7810753E1,3.6984315E0,1.4112322E1,2.6673188E0,1.0311126E0],"tree_param":{"num_deleted":"0","num_feature":"243","num_nodes":"5","size_leaf_vector":"1"}},{"base_weights":[5.181007E-2,1.4720215E-1,-4.3228018E-1,1.1605478E-2,-2.4536217E-2],"categories":[],"categories_nodes":[],"categories_segments":[],"categories_sizes":[],"default_left":[0,0,0,0,0],"id":124,"left_children":[1,-1,3,-1,-1],"loss_changes":[2.6661383E1,0E0,7.5092316E-1,0E0,0E0],"parents":[2147483647,0,0,2,2],"right_children":[2,-1,4,-1,-1],"split_conditions":[1.0438106E0,1.4720215E-1,2.1230291E-1,1.1605478E-2,-2.4536217E-2],"split_indices":[54,0,185,0,0],"split_type":[0,0,0,0,0],"sum_hessian":[1.7133492E1,1.7279754E0,1.5405516E1,1.005344E0,1.4400171E1],"tree_param":{"num_deleted":"0","num_feature":"243","num_nodes":"5","size_leaf_vector":"1"}},{"base_weights":[-9.832599E-2,-2.441059E-2,1.5198232E0,2.7664235E-2,9.1287054E-2],"categories":[],"categories_nodes":[],"categories_segments":[],"categories_sizes":[],"default_left":[1,0,1,0,0],"id":125,"left_children":[1,-1,3,-1,-1],"loss_changes":[1.1803748E1,0E0,6.833744E-2,0E0,0E0],"parents":[2147483647,0,0,2,2],"right_children":[2,-1,4,-1,-1],"split_conditions":[2.6026726E-1,-2.441059E-2,1.5609144E-1,2.7664235E-2,9.1287054E-2],"split_indices":[100,0,69,0,0],"split_type":[0,0,0,0,0],"sum_hessian":[1.6533474E1,1.3885995E1,2.6474783E0,1.3117254E0,1.335753E0],"tree_param":{"num_deleted":"0","num_feature":"243","num_nodes":"5","size_leaf_vector":"1"}},{"base_weights":[9.649522E-2,1.166832E-1,-3.118551E-1,-3.6256668E-1,1.15089035E-2,1.14485985E-2,-2.1001523E-2],"categories":[],"categories_nodes":[],"categories_segments":[],"categories_sizes":[],"default_left":[0,0,1,0,0,0,0],"id":126,"left_children":[1,-1,3,5,-1,-1,-1],"loss_changes":[1.7517128E1,0E0,5.3489435E-1,6.1988235E-1,0E0,0E0,0E0],"parents":[2147483647,0,0,2,2,3,3],"right_children":[2,-1,4,6,-1,-1,-1],"split_conditions":[3.2729253E-1,1.166832E-1,3.02701E-1,3.442956E-1,1.15089035E-2,1.14485985E-2,-2.1001523E-2],"split_indices":[204,0,162,88,0,0,0],"split_type":[0,0,0,0,0,0,0],"sum_hessian":[1.7378183E1,1.9546535E0,1.542353E1,1.4406759E1,1.01677E0,1.0113344E0,1.3395425E1],"tree_param":{"num_deleted":"0","num_feature":"243","num_nodes":"7","size_leaf_vector":"1"}},{"base_weights":[-9.148619E-2,-3.0901176E-1,8.628166E-2,5.2462608E-2,-2.4456443E-2],"categories":[],"categories_nodes":[],"categories_segments":[],"categories_sizes":[],"default_left":[1,0,0,0,0],"id":127,"left_children":[1,3,-1,-1,-1],"loss_changes":[7.376309E0,4.503316E0,0E0,0E0,0E0],"parents":[2147483647,0,0,1,1],"right_children":[2,4,-1,-1,-1],"split_conditions":[3.2937163E-1,4.771725E-1,8.628166E-2,5.2462608E-2,-2.4456443E-2],"split_indices":[232,1,0,0,0],"split_type":[0,0,0,0,0],"sum_hessian":[1.6312393E1,1.5309636E1,1.0027572E0,1.2275192E0,1.4082117E1],"tree_param":{"num_deleted":"0","num_feature":"243","num_nodes":"5","size_leaf_vector":"1"}},{"base_weights":[-9.596431E-2,1.2399033E0,-3.5986674E-1,1.0722913E-1,-1.3908053E-2,3.6026247E-2,-2.435072E-2],"categories":[],"categories_nodes":[],"categories_segments":[],"categories_sizes":[],"default_left":[0,1,0,0,0,0,0],"id":128,"left_children":[1,3,5,-1,-1,-1,-1],"loss_changes":[6.605278E0,4.863509E0,2.461404E0,0E0,0E0,0E0,0E0],"parents":[2147483647,0,0,1,1,2,2],"right_children":[2,4,6,-1,-1,-1,-1],"split_conditions":[8.133382E-1,1.8420367E-1,2.9818404E-1,1.0722913E-1,-1.3908053E-2,3.6026247E-2,-2.435072E-2],"split_indices":[106,30,55,0,0,0,0],"split_type":[0,0,0,0,0,0,0],"sum_hessian":[1.6470642E1,2.1069536E0,1.43636875E1,1.0615953E0,1.0453584E0,1.0210283E0,1.334266E1],"tree_param":{"num_deleted":"0","num_feature":"243","num_nodes":"7","size_leaf_vector":"1"}},{"base_weights":[-9.297919E-2,-3.7073517E-1,1.1110504E-1,-2.4523444E-2,3.5148006E-2],"categories":[],"categories_nodes":[],"categories_segments":[],"categories_sizes":[],"default_left":[1,1,0,0,0],"id":129,"left_children":[1,3,-1,-1,-1],"loss_changes":[1.2000008E1,2.450003E0,0E0,0E0,0E0],"parents":[2147483647,0,0,1,1],"right_children":[2,4,-1,-1,-1],"split_conditions":[3.4880254E-1,2.930683E-1,1.1110504E-1,-2.4523444E-2,3.5148006E-2],"split_indices":[239,219,0,0,0],"split_type":[0,0,0,0,0],"sum_hessian":[1.6380592E1,1.5375723E1,1.00487E0,1.4321814E1,1.0539092E0],"tree_param":{"num_deleted":"0","num_feature":"243","num_nodes":"5","size_leaf_vector":"1"}},{"base_weights":[1.8344338E-3,-1.9165525E-1,6.488242E-2,3.4396432E-2,-2.9755178E-1,1.1340204E-2,-3.5041317E-1,8.773863E-3,-4.0974277E-1,-2.3913832E-2,7.46518E-4],"categories":[],"categories_nodes":[],"categories_segments":[],"categories_sizes":[],"default_left":[1,0,0,0,0,0,0,0,1,0,0],"id":130,"left_children":[1,3,-1,-1,5,-1,7,-1,9,-1,-1],"loss_changes":[4.7629347E0,1.7450092E0,0E0,0E0,5.0793815E-1,0E0,5.222899E-1,0E0,3.934028E-1,0E0,0E0],"parents":[2147483647,0,0,1,1,4,4,6,6,8,8],"right_children":[2,4,-1,-1,6,-1,8,-1,10,-1,-1],"split_conditions":[2.7977207E-1,2.8531083E-1,6.488242E-2,3.4396432E-2,2.2640666E-1,1.1340204E-2,1.7406173E-1,8.773863E-3,1.8077607E-1,-2.3913832E-2,7.46518E-4],"split_indices":[100,112,0,0,97,0,30,0,69,0,0],"split_type":[0,0,0,0,0,0,0,0,0,0,0],"sum_hessian":[1.7004602E1,1.5536764E1,1.4678379E0,1.078923E0,1.4457841E1,1.0226977E0,1.3435143E1,1.1635866E0,1.2271557E1,1.0457672E1,1.8138847E0],"tree_param":{"num_deleted":"0","num_feature":"243","num_nodes":"11","size_leaf_vector":"1"}},{"base_weights":[-4.7118664E-2,9.151587E-1,-2.891047E-1,9.924421E-3,5.661121E-2,-4.1513965E-1,3.656518E-2,1.1663152E-2,-2.4188878E-2],"categories":[],"categories_nodes":[],"categories_segments":[],"categories_sizes":[],"default_left":[0,1,1,0,0,0,0,0,0],"id":131,"left_children":[1,3,5,-1,-1,7,-1,-1,-1],"loss_changes":[4.403378E0,3.6821318E-1,2.2278595E0,0E0,0E0,7.3393035E-1,0E0,0E0,0E0],"parents":[2147483647,0,0,1,1,2,2,5,5],"right_children":[2,4,6,-1,-1,8,-1,-1,-1],"split_conditions":[1.8420367E-1,1.3583942E-1,3.0951065E-1,9.924421E-3,5.661121E-2,2.7178913E-1,3.656518E-2,1.1663152E-2,-2.4188878E-2],"split_indices":[30,69,162,0,0,38,0,0,0],"split_type":[0,0,0,0,0,0,0,0,0],"sum_hessian":[1.677395E1,2.8115854E0,1.3962365E1,1.0986534E0,1.7129319E0,1.2955358E1,1.0070078E0,1.0105469E0,1.1944811E1],"tree_param":{"num_deleted":"0","num_feature":"243","num_nodes":"9","size_leaf_vector":"1"}},{"base_weights":[9.1440104E-2,1.1902242E-1,-2.0860124E-1,-3.6532193E-1,3.9297987E-2,-2.4349106E-2,2.4741994E-2],"categories":[],"categories_nodes":[],"categories_segments":[],"categories_sizes":[],"default_left":[0,0,1,1,0,0,0],"id":132,"left_children":[1,-1,3,5,-1,-1,-1],"loss_changes":[1.3226902E1,0E0,2.9847643E0,1.8770216E0,0E0,0E0,0E0],"parents":[2147483647,0,0,2,2,3,3],"right_children":[2,-1,4,6,-1,-1,-1],"split_conditions":[9.700865E-1,1.1902242E-1,2.7053204E-1,3.1018803E-1,3.9297987E-2,-2.4349106E-2,2.4741994E-2],"split_indices":[12,0,188,76,0,0,0],"split_type":[0,0,0,0,0,0,0],"sum_hessian":[1.7535807E1,1.2286594E0,1.6307148E1,1.4633857E1,1.6732905E0,1.3200625E1,1.4332315E0],"tree_param":{"num_deleted":"0","num_feature":"243","num_nodes":"7","size_leaf_vector":"1"}},{"base_weights":[3.66535E-3,1.3430999E-1,-4.311375E-1,-2.4514453E-2,1.17365075E-2],"categories":[],"categories_nodes":[],"categories_segments":[],"categories_sizes":[],"default_left":[0,0,1,0,0],"id":133,"left_children":[1,-1,3,-1,-1],"loss_changes":[2.2029387E1,0E0,7.5552034E-1,0E0,0E0],"parents":[2147483647,0,0,2,2],"right_children":[2,-1,4,-1,-1],"split_conditions":[8.2451314E-1,1.3430999E-1,3.217921E-1,-2.4514453E-2,1.17365075E-2],"split_indices":[117,0,218,0,0],"split_type":[0,0,0,0,0],"sum_hessian":[1.6894152E1,1.6341603E0,1.5259992E1,1.4257157E1,1.0028341E0],"tree_param":{"num_deleted":"0","num_feature":"243","num_nodes":"5","size_leaf_vector":"1"}},{"base_weights":[-5.0633244E-2,-1.9931936E-1,6.1474662E-2,4.6397515E-2,-3.6284304E-1,-2.4378894E-2,2.2005921E-2],"categories":[],"categories_nodes":[],"categories_segments":[],"categories_sizes":[],"default_left":[1,0,0,0,1,0,0],"id":134,"left_children":[1,3,-1,-1,5,-1,-1],"loss_changes":[3.6523187E0,3.4517515E0,0E0,0E0,1.7647169E0,0E0,0E0],"parents":[2147483647,0,0,1,1,4,4],"right_children":[2,4,-1,-1,6,-1,-1],"split_conditions":[2.952417E-1,3.664319E-1,6.1474662E-2,4.6397515E-2,2.7480584E-1,-2.4378894E-2,2.2005921E-2],"split_indices":[18,168,0,0,38,0,0],"split_type":[0,0,0,0,0,0,0],"sum_hessian":[1.6901176E1,1.5898831E1,1.002345E0,1.4219232E0,1.4476909E1,1.28703575E1,1.6065507E0],